<?xml version="1.0"?>
<opencv_storage>
<my_svm type_id="opencv-ml-svm">
    <svm_type>C_SVC</svm_type>
    <kernel>
      <type>RBF</type>
      <gamma>auto</gamma>
    </kernel>
    <C>0.1</C>
    <term_criteria>
      <epsilon>0.001</epsilon>
      <iterations>1000</iterations>
    </term_criteria>
    <var_all>1080</var_all>
    <var_count>1080</var_count>
    <class_count>2</class_count>
    <class_labels type_id="opencv-matrix">
      <rows>1</rows>
      <cols>2</cols>
      <dt>i</dt>
      <data>0 1</data>
    </class_labels>
    <sv_total>483</sv_total>
    <support_vectors>
      <_>1031.06 68.5164 1056.55 86.1502 1009.55 84.1803 984.153 136.938 978.228 191.746 1101.57 88.0615 1130.85 146.735 1115.25 195.643 1019.34 211.266 1005.58 297.361 984.127 373.718 1072.27 217.188 1070.14 303.187 1046.73 375.636 1025.32 54.7928 1040.81 60.6606 0.0 0.0 1068.23 54.7165 1034.97 68.4121 1056.55 84.1561 1009.6 80.2206 990.034 131.087 984.136 181.981 1103.42 86.1251 1132.87 144.721 1117.24 195.694 1021.33 207.348 1009.51 289.618 992.022 367.794 1076.11 211.302 1070.26 295.435 1052.61 365.908 1027.25 52.8192 1040.93 56.7506 0.0 0.0 1070.14 52.8746 1034.96 68.4545 1060.49 84.0317 1015.46 74.3371 993.921 123.268 995.857 176.087 1103.51 84.2129 1134.89 140.867 1117.23 195.714 1023.31 205.425 1011.51 287.589 1007.55 360.003 1079.99 209.411 1070.29 291.492 1054.52 360.01 1025.32 52.8814 1040.9 56.7529 0.0 0.0 1070.12 52.7263 1033.03 62.6212 1060.44 76.328 1019.32 70.4034 1001.76 125.189 995.937 170.225 1103.47 84.0458 1136.78 133.125 1119.06 195.577 1023.28 201.511 1011.55 285.62 1007.61 354.111 1078.04 209.345 1070.29 291.514 1054.53 358.022 1027.17 50.8731 1040.88 54.7633 0.0 0.0 1070.2 46.9689 1027.22 54.7776 1064.35 78.2652 1023.2 70.4379 1007.54 123.299 1001.72 176.102 1103.5 84.089 1136.76 135.025 1117.2 195.615 1025.25 199.575 1013.45 274.011 1009.56 350.178 1080.02 209.311 1072.1 289.593 1054.57 354.139 1025.28 41.1033 1040.81 50.8369 0.0 0.0 1070.22 39.2307 1027.16 50.8607 1066.29 74.3835 1025.17 70.3992 1009.59 121.32 1005.67 164.381 1103.43 82.197 1136.81 134.988 1117.16 193.673 1027.18 195.686 1015.46 273.885 1009.57 352.127 1081.98 203.497 1072.14 289.499 1054.62 354.159 1025.25 37.1962 1038.86 41.0568 0.0 0.0 1070.19 37.2351 1027.23 52.7591 1070.13 72.3787 1025.32 68.4053 1019.33 115.442 1009.58 150.628 1105.42 82.1628 1136.77 135.014 1107.4 193.697 1027.23 195.63 1021.25 275.874 1015.42 354.099 1083.88 205.447 1070.26 289.513 1054.53 365.811 1025.29 39.0872 1038.87 41.1309 0.0 0.0 1070.2 37.1184 1025.31 41.1117 1070.17 74.3589 1027.21 68.5505 1023.24 115.486 1015.43 148.745 1103.54 82.1914 1134.89 133.012 1103.56 193.597 1031.08 195.714 1021.34 277.809 1025.17 352.217 1083.9 207.385 1070.22 287.661 1054.57 365.888 1025.28 31.2705 1038.84 37.1979 0.0 0.0 1070.16 35.2525 1025.29 39.1669 1070.15 70.5182 1027.23 68.4211 1025.14 117.457 1023.18 162.395 1103.49 80.1682 1134.87 131.1 1101.53 189.806 1027.25 203.466 1025.25 301.316 1050.66 371.742 1081.95 209.354 1068.28 301.257 1038.9 379.548 1025.25 25.5034 1038.8 35.2398 0.0 0.0 1070.12 33.2212 1025.18 39.164 1070.14 70.3595 1031.07 64.5945 1025.29 119.38 1025.3 170.227 1101.6 74.3559 1134.74 129.145 1101.54 181.936 1029.18 199.574 1027.16 291.559 1056.55 363.891 1078.05 209.277 1064.31 291.537 1038.91 373.677 1025.22 31.2706 1033.06 33.2358 0.0 0.0 1066.26 29.3693 1025.24 39.0899 1070.21 66.4637 1038.9 56.7044 0.0 0.0 0.0 0.0 1101.45 70.4707 1130.8 130.982 1089.79 183.92 1033.01 195.619 1027.14 287.584 1054.59 342.386 1074.2 201.54 1062.38 289.515 1050.65 367.812 1023.29 27.4155 1033.02 31.3195 0.0 0.0 1060.42 27.3881 1025.23 37.1395 1070.27 60.6889 1042.82 54.7996 0.0 0.0 0.0 0.0 1099.5 68.5194 1121.1 129.146 1085.82 180.052 1036.95 189.755 1025.31 269.959 1040.93 320.872 1078.04 195.602 1066.3 277.811 1056.56 352.147 1025.17 25.5129 1031.07 25.4719 0.0 0.0 1056.52 25.423 1025.2 29.3507 1070.21 56.7812 1044.79 52.8489 0.0 0.0 0.0 0.0 1091.77 66.5493 1117.23 129.146 1074.13 180.07 1038.92 183.922 1027.21 260.235 1046.72 318.924 1076.1 193.625 1062.42 273.913 1054.57 346.279 0.0 0.0 1029.13 21.5483 0.0 0.0 1054.56 23.4126 1023.15 27.3784 1070.16 54.8079 1048.68 50.8928 0.0 0.0 0.0 0.0 1087.88 62.5858 1111.3 129.16 1066.31 179.972 1038.94 181.981 1029.15 264.119 1048.67 318.932 1078.05 191.722 1060.48 273.917 1056.59 348.222 0.0 0.0 1025.23 21.4562 0.0 0.0 1052.57 21.5664 1021.27 29.3262 1068.29 52.895 1052.6 52.7733 0.0 0.0 0.0 0.0 1083.94 56.7106 1103.47 131.012 1056.56 179.978 1044.79 181.947 1035.0 260.276 1050.62 322.807 1078.02 187.805 1060.46 272.003 1056.54 346.307 0.0 0.0 1023.32 21.4791 0.0 0.0 1044.82 21.4519 1021.33 25.4513 1064.36 46.9755 1048.7 46.9326 1038.85 125.217 1023.31 178.108 1081.93 50.8106 1099.58 121.283 1052.62 177.947 1044.83 179.966 1036.95 260.218 1052.61 326.731 1074.13 181.997 1058.53 269.991 1056.49 346.327 1021.31 21.4718 1025.15 19.5912 0.0 0.0 1042.86 17.5811 1019.3 25.4408 1060.41 46.9232 1048.68 46.9331 1040.89 125.156 1023.25 176.091 1072.21 48.9156 1091.76 127.129 1040.93 170.208 1048.72 180.022 1038.92 268.018 1056.49 338.477 1072.14 182.006 1056.59 271.976 1054.48 352.161 0.0 0.0 1023.2 19.5328 0.0 0.0 1042.8 15.6069 1015.45 19.4972 1056.59 41.0764 1048.66 39.1014 0.0 0.0 0.0 0.0 1070.14 45.0152 1085.89 129.069 1035.0 166.369 1056.53 176.083 1040.81 260.26 1052.6 334.578 1070.24 178.09 1054.6 268.062 1054.57 350.202 0.0 0.0 1021.32 3.88954 0.0 0.0 1040.83 4.83353 1013.5 17.5506 1056.51 41.0554 1044.75 39.0716 0.0 0.0 0.0 0.0 1068.24 44.9938 1074.18 119.389 1031.1 162.438 1054.54 170.243 1040.89 258.23 1044.8 320.896 1070.18 177.996 1056.52 262.158 1056.5 342.398 0.0 0.0 1021.25 4.82946 0.0 0.0 1038.96 4.83233 0.0 0.0 1056.45 39.1639 1048.67 37.1222 1035.0 107.563 0.0 0.0 1058.47 45.0176 1070.24 117.477 1023.33 162.371 1056.51 164.344 1042.83 252.356 1046.72 320.874 1066.3 168.285 1056.45 256.25 1054.6 336.534 0.0 0.0 0.0 0.0 0.0 0.0 1038.87 4.84247 1009.67 3.8908 1054.6 37.2492 1042.84 35.2007 0.0 0.0 0.0 0.0 1060.46 41.1419 1068.27 115.501 1019.33 158.509 1048.72 166.337 1040.88 258.279 1042.82 320.859 1060.44 174.149 1054.53 262.175 1056.51 338.498 0.0 0.0 1015.47 4.85265 0.0 0.0 1038.85 4.85233 1011.51 4.8438 1054.56 37.2379 1040.88 35.1443 0.0 0.0 0.0 0.0 1060.45 41.1099 1058.5 115.434 1009.61 150.718 1044.79 174.093 1038.93 260.266 1042.87 320.893 1056.6 178.001 1048.66 266.086 1054.62 340.438 0.0 0.0 1019.31 4.86578 0.0 0.0 1036.98 4.86614 1011.48 4.8607 1054.58 37.0856 1040.83 27.4054 0.0 0.0 0.0 0.0 1064.34 39.1002 1058.51 111.515 1007.6 146.813 1038.95 166.335 1033.05 262.176 1042.81 336.489 1054.61 174.114 1040.88 264.145 1046.75 346.303 0.0 0.0 0.0 0.0 0.0 0.0 1046.73 4.87737 1007.63 4.84518 1054.62 37.1441 1056.53 29.3649 0.0 0.0 0.0 0.0 1054.59 39.1123 1050.64 109.582 1003.72 146.681 1038.92 170.23 1031.08 262.197 1038.95 344.341 1048.68 177.995 1031.07 266.075 1040.96 359.985 0.0 0.0 1011.49 4.86525 0.0 0.0 1033.07 4.87032 1005.64 4.84432 1056.52 37.0721 1074.15 33.2342 0.0 0.0 0.0 0.0 1040.85 39.1025 1033.07 107.586 992.015 144.729 1060.45 180.052 1048.72 269.995 1040.81 342.411 1035.03 180.059 1025.16 271.923 1038.84 350.225 0.0 0.0 1007.54 4.85607 0.0 0.0 1027.17 4.8781 1001.74 4.84475 1056.48 35.1898 1076.07 33.2602 1058.46 99.7832 0.0 0.0 1038.88 37.1571 1025.21 99.8243 991.987 133.088 1058.46 187.842 1046.73 283.666 1040.95 356.114 1027.22 185.888 1021.27 285.614 1019.33 354.133 0.0 0.0 0.0 0.0 0.0 0.0 1025.25 4.88105 999.767 4.85254 1054.55 35.2169 1078.05 35.1543 0.0 0.0 0.0 0.0 1029.14 37.1153 1023.21 99.7883 982.221 133.131 1058.52 178.04 1054.5 264.136 1048.69 344.319 1021.29 176.103 1007.63 258.293 1009.53 336.483 0.0 0.0 1003.67 4.86626 0.0 0.0 1025.23 4.87541 995.88 4.84851 1052.57 35.152 1072.21 33.2373 0.0 0.0 0.0 0.0 1027.16 37.091 1011.49 101.771 978.182 133.002 1056.54 181.991 1052.56 275.875 1040.91 367.864 1009.64 179.98 991.858 272.006 976.368 361.948 0.0 0.0 999.791 4.86406 0.0 0.0 1021.3 4.87703 993.922 4.84888 1044.75 31.3349 1070.28 33.2331 0.0 0.0 0.0 0.0 1023.2 35.1676 1009.48 101.703 976.211 131.001 1056.58 174.09 1048.71 256.329 1042.81 336.479 1011.58 166.285 976.334 228.96 980.238 320.84 0.0 0.0 995.847 4.86159 0.0 0.0 1015.42 4.87481 991.951 4.85941 1040.82 27.4264 1068.25 27.3738 1064.34 97.8167 0.0 0.0 1015.45 33.254 1005.67 99.8662 966.541 129.123 1054.57 166.336 1044.78 252.35 1042.84 326.729 1009.51 162.397 964.619 213.312 974.301 301.295 0.0 0.0 0.0 0.0 0.0 0.0 1011.52 4.88013</_>
      <_>1179.77 72.3875 1213.12 101.799 1207.16 99.8591 0.0 0.0 0.0 0.0 1224.73 101.793 1209.13 178.073 1171.95 238.65 1211.08 236.738 1199.32 318.889 1203.24 389.338 1197.32 238.686 1138.72 301.293 1148.56 381.459 1179.7 60.6489 1183.7 66.4808 0.0 0.0 1209.16 60.6233 1166.18 70.5304 1213.08 101.747 1224.73 99.8488 0.0 0.0 0.0 0.0 1211.09 101.809 1199.33 178.056 1166.02 236.709 1211.12 240.646 1197.47 318.844 1205.19 387.397 1183.72 238.686 1134.71 297.423 1132.86 375.648 1168.07 56.8116 1175.83 66.5151 0.0 0.0 1195.4 56.7897 1164.12 70.5165 1211.02 101.682 1215.04 99.746 0.0 0.0 0.0 0.0 1201.32 101.785 1193.49 178.047 1164.11 236.715 1211.06 240.613 1197.35 313.071 1205.23 389.327 1181.69 238.647 1128.88 297.421 1117.07 367.865 1164.07 62.5996 1166.16 66.4493 0.0 0.0 1191.5 58.6939 1154.32 70.4971 1199.32 99.8409 1209.16 99.7633 0.0 0.0 0.0 0.0 1193.48 101.811 1185.66 178.058 1154.39 238.644 1205.24 238.71 1197.33 314.996 1207.15 387.413 1173.92 236.707 1121.06 291.547 1103.44 360.001 1150.52 54.8472 1164.02 66.54 0.0 0.0 1181.72 62.5665 0.0 0.0 1195.38 101.767 1209.09 101.695 1197.45 164.411 0.0 0.0 1181.74 101.821 1179.7 178.031 1150.41 240.605 1199.32 232.801 1195.46 305.284 1201.31 383.553 1166.06 230.87 1119.15 291.544 1087.91 358.053 0.0 0.0 0.0 0.0 1189.57 50.8224 1148.52 54.854 1136.71 72.3697 1185.64 101.678 1197.34 99.7954 0.0 0.0 0.0 0.0 1177.81 101.792 1168.06 178.071 1148.45 240.694 1195.45 223.011 1193.46 305.145 1199.37 383.466 1166.12 224.938 1113.27 289.495 1087.75 363.854 0.0 0.0 0.0 0.0 1179.72 50.831 1148.49 56.7483 1132.74 70.4501 1179.84 103.723 1195.48 105.629 1183.73 164.366 0.0 0.0 1166.07 103.718 1160.24 179.998 1136.71 240.581 1183.74 228.889 1183.72 303.197 1199.36 377.631 1150.46 228.966 1103.46 287.561 1087.75 358.02 0.0 0.0 0.0 0.0 1173.88 48.901 1134.85 54.7949 0.0 0.0 1168.05 103.697 1181.75 103.667 0.0 0.0 0.0 0.0 1154.37 103.666 1150.44 178.066 1134.71 238.733 1179.83 224.978 1179.83 301.241 1197.43 375.654 1148.44 225.027 1093.71 285.647 1083.92 356.129 0.0 0.0 0.0 0.0 0.0 0.0 1121.08 52.7789 0.0 0.0 1166.08 105.657 1183.7 109.56 1175.87 162.396 0.0 0.0 1150.39 103.734 1144.53 179.99 1119.18 240.654 1175.89 223.051 1175.82 303.163 1195.45 369.809 1146.55 224.995 1085.82 279.792 1078.03 352.146 0.0 0.0 0.0 0.0 1150.46 54.8173 1117.22 58.6753 0.0 0.0 1148.47 103.663 1158.27 101.738 1119.2 176.014 1093.69 191.683 1136.77 101.831 1132.86 178.029 1117.1 234.759 1162.15 225.043 1164.16 299.317 1189.59 367.788 1132.78 226.951 1081.96 279.757 1076.08 352.215 0.0 0.0 0.0 0.0 1144.58 52.7447 1103.4 52.8449 0.0 0.0 1152.38 107.606 1179.71 113.497 0.0 0.0 0.0 0.0 1130.9 103.696 1107.38 176.084 1101.58 227.008 1152.41 223.056 1150.43 289.551 1181.77 358.028 1117.11 223.07 1074.19 285.641 1076.13 352.273 0.0 0.0 0.0 0.0 1136.76 52.7277 1099.56 54.8777 0.0 0.0 1142.57 101.834 1162.16 103.699 0.0 0.0 0.0 0.0 1121.1 103.678 1117.22 176.066 1099.58 219.105 1144.6 219.135 1136.7 287.584 1168.09 336.564 1109.38 221.103 1072.22 285.628 1078.05 358.032 0.0 0.0 0.0 0.0 1134.72 46.9548 1087.87 54.858 0.0 0.0 1124.99 101.696 1134.79 99.7729 0.0 0.0 0.0 0.0 1117.19 101.828 1109.35 174.105 1085.82 215.191 1126.97 219.13 1126.98 287.614 1166.16 354.135 1101.57 221.113 1070.2 285.654 1078.08 354.181 0.0 0.0 0.0 0.0 1126.95 45.0299 1085.89 54.7631 0.0 0.0 1121.11 101.723 1134.8 101.682 0.0 0.0 0.0 0.0 1107.43 101.79 1103.57 174.132 1076.11 219.128 1121.07 223.007 1119.15 285.642 1156.34 352.201 1097.63 224.936 1070.11 285.665 1076.12 354.195 0.0 0.0 0.0 0.0 1119.12 48.8961 1074.1 52.8742 0.0 0.0 1119.15 99.8121 1134.76 99.7217 1103.46 136.986 0.0 0.0 1103.56 101.765 1097.59 177.975 1068.19 217.189 1123.04 217.179 1117.09 283.699 1148.39 352.219 1097.61 221.072 1066.29 281.764 1078.04 352.254 0.0 0.0 0.0 0.0 1119.15 43.019 1072.18 54.7344 0.0 0.0 1111.27 99.7146 1121.07 95.8948 1095.62 140.895 0.0 0.0 1101.44 99.8378 1089.75 170.251 1058.48 211.314 1119.22 213.27 1105.4 285.613 1123.04 352.149 1097.58 217.149 1066.31 279.779 1079.98 352.206 0.0 0.0 0.0 0.0 1103.58 39.2036 1064.38 52.7906 0.0 0.0 1107.4 97.843 1119.14 95.8499 0.0 0.0 0.0 0.0 1099.55 99.745 1087.79 166.341 1054.5 211.262 1117.23 221.113 1099.53 291.531 1101.6 354.129 1091.76 223.027 1058.52 275.926 1078.06 350.215 0.0 0.0 0.0 0.0 1101.46 39.1148 1054.61 43.0736 0.0 0.0 1103.55 93.9198 1121.06 91.9361 1103.48 150.687 0.0 0.0 1089.76 97.8155 1083.94 164.322 1048.68 207.375 1115.24 213.27 1074.14 285.626 1078.07 350.18 1087.85 215.241 1058.46 281.716 1081.95 352.221 0.0 0.0 0.0 0.0 1099.49 37.1177 1056.56 46.983 0.0 0.0 1099.55 90.029 1115.19 88.0474 0.0 0.0 0.0 0.0 1085.83 97.7632 1076.06 162.37 1042.84 207.327 1107.41 209.326 1070.15 281.727 1072.19 350.141 1083.93 211.269 1056.53 281.724 1081.93 354.134 0.0 0.0 0.0 0.0 1089.77 37.1083 1054.52 48.9197 0.0 0.0 1089.8 86.1746 1103.52 84.1711 0.0 0.0 0.0 0.0 1080.0 91.9811 1072.15 162.311 1038.84 203.513 1099.54 209.319 1052.57 285.601 1048.69 340.451 1079.96 211.335 1058.51 287.641 1083.87 358.059 0.0 0.0 0.0 0.0 1081.92 37.079 1038.94 39.1516 0.0 0.0 1085.88 88.0254 1099.59 86.0778 0.0 0.0 0.0 0.0 1072.22 90.0028 1070.13 158.474 1033.05 201.538 1087.84 205.456 1036.9 268.012 1021.3 334.623 1072.22 209.31 1058.47 279.792 1081.93 356.088 0.0 0.0 0.0 0.0 1072.26 37.1253 1038.87 41.132 0.0 0.0 1076.06 86.1043 1087.84 84.099 1058.49 148.722 0.0 0.0 1068.22 89.9717 1062.4 162.307 1027.17 207.364 1078.04 209.381 1023.23 277.801 997.864 346.325 1066.27 211.372 1058.45 289.513 1083.84 359.97 0.0 0.0 0.0 0.0 1070.17 35.2211 1025.27 39.1793 0.0 0.0 1068.29 86.0312 1080.01 84.0461 0.0 0.0 0.0 0.0 1060.47 88.0068 1058.52 152.605 1025.26 205.438 1066.32 207.385 1017.36 264.129 997.807 336.576 1058.47 211.277 1056.52 289.565 1083.85 356.06 0.0 0.0 0.0 0.0 1062.43 35.2011 1025.31 41.1316 0.0 0.0 1064.36 84.1798 1074.16 82.1751 0.0 0.0 0.0 0.0 1056.5 86.08 1054.6 150.681 1023.31 207.416 1066.33 209.294 1056.61 287.636 1074.15 350.279 1056.45 211.326 1056.45 289.594 1083.89 359.979 0.0 0.0 0.0 0.0 1056.47 35.1476 1017.41 39.1321 0.0 0.0 1056.59 84.1075 1070.26 80.2259 0.0 0.0 0.0 0.0 1052.57 84.2108 1052.56 152.65 1021.3 209.286 1068.2 207.344 1056.54 287.617 1072.23 350.233 1052.55 209.39 1054.52 289.549 1078.08 354.146 0.0 0.0 0.0 0.0 1052.6 33.2458 1009.63 39.1884 1007.57 54.7244 1048.7 82.2054 1054.59 80.1882 0.0 0.0 0.0 0.0 1044.81 84.1412 1044.78 148.659 1017.37 207.366 1054.55 201.513 1054.5 285.667 1074.11 350.212 1040.86 207.374 1052.55 287.557 1076.12 352.131 0.0 0.0 0.0 0.0 1042.91 27.3927 1011.57 37.2397 0.0 0.0 1042.85 80.1721 1054.55 72.3901 0.0 0.0 0.0 0.0 1040.86 84.0738 1040.87 148.684 1013.53 209.331 1056.49 197.658 1048.67 279.804 1070.25 346.301 1040.89 207.369 1040.94 283.701 1074.2 350.222 0.0 0.0 0.0 0.0 1038.85 27.4158 997.875 37.2206 991.992 52.758 1036.99 76.2901 1048.67 70.4941 0.0 0.0 0.0 0.0 1034.97 82.1626 1038.89 146.801 1015.43 207.365 1050.63 197.661 1042.84 283.65 1070.27 346.327 1038.81 207.378 1040.8 285.64 1078.01 352.143 0.0 0.0 0.0 0.0 0.0 0.0 999.769 37.1793 988.057 48.8886 1025.29 72.3953 0.0 0.0 0.0 0.0 0.0 0.0 1027.15 78.2281 1034.95 146.7 1011.52 203.466 1036.97 195.659 1038.84 275.888 1068.27 342.384 1027.22 199.584 1033.04 279.773 1074.19 350.192 0.0 0.0 989.987 39.1876 0.0 0.0 995.9 37.0845 980.237 44.9991 1025.25 70.3691 1036.95 66.4932 0.0 0.0 0.0 0.0 1023.23 74.3269 1027.25 140.869 1009.63 195.67 1035.03 193.637 1027.21 273.957 1070.14 346.326 1023.3 195.607 1025.22 275.899 1072.21 350.25 0.0 0.0 980.213 39.1663 0.0 0.0 991.921 35.2005</_>
      <_>0.0 0.0 1111.27 99.7146 1121.07 95.8948 1095.62 140.895 0.0 0.0 1101.44 99.8378 1089.75 170.251 1058.48 211.314 1119.22 213.27 1105.4 285.613 1123.04 352.149 1097.58 217.149 1066.31 279.779 1079.98 352.206 0.0 0.0 0.0 0.0 1103.58 39.2036 1064.38 52.7906 0.0 0.0 1107.4 97.843 1119.14 95.8499 0.0 0.0 0.0 0.0 1099.55 99.745 1087.79 166.341 1054.5 211.262 1117.23 221.113 1099.53 291.531 1101.6 354.129 1091.76 223.027 1058.52 275.926 1078.06 350.215 0.0 0.0 0.0 0.0 1101.46 39.1148 1054.61 43.0736 0.0 0.0 1103.55 93.9198 1121.06 91.9361 1103.48 150.687 0.0 0.0 1089.76 97.8155 1083.94 164.322 1048.68 207.375 1115.24 213.27 1074.14 285.626 1078.07 350.18 1087.85 215.241 1058.46 281.716 1081.95 352.221 0.0 0.0 0.0 0.0 1099.49 37.1177 1056.56 46.983 0.0 0.0 1099.55 90.029 1115.19 88.0474 0.0 0.0 0.0 0.0 1085.83 97.7632 1076.06 162.37 1042.84 207.327 1107.41 209.326 1070.15 281.727 1072.19 350.141 1083.93 211.269 1056.53 281.724 1081.93 354.134 0.0 0.0 0.0 0.0 1089.77 37.1083 1054.52 48.9197 0.0 0.0 1089.8 86.1746 1103.52 84.1711 0.0 0.0 0.0 0.0 1080.0 91.9811 1072.15 162.311 1038.84 203.513 1099.54 209.319 1052.57 285.601 1048.69 340.451 1079.96 211.335 1058.51 287.641 1083.87 358.059 0.0 0.0 0.0 0.0 1081.92 37.079 1038.94 39.1516 0.0 0.0 1085.88 88.0254 1099.59 86.0778 0.0 0.0 0.0 0.0 1072.22 90.0028 1070.13 158.474 1033.05 201.538 1087.84 205.456 1036.9 268.012 1021.3 334.623 1072.22 209.31 1058.47 279.792 1081.93 356.088 0.0 0.0 0.0 0.0 1072.26 37.1253 1038.87 41.132 0.0 0.0 1076.06 86.1043 1087.84 84.099 1058.49 148.722 0.0 0.0 1068.22 89.9717 1062.4 162.307 1027.17 207.364 1078.04 209.381 1023.23 277.801 997.864 346.325 1066.27 211.372 1058.45 289.513 1083.84 359.97 0.0 0.0 0.0 0.0 1070.17 35.2211 1025.27 39.1793 0.0 0.0 1068.29 86.0312 1080.01 84.0461 0.0 0.0 0.0 0.0 1060.47 88.0068 1058.52 152.605 1025.26 205.438 1066.32 207.385 1017.36 264.129 997.807 336.576 1058.47 211.277 1056.52 289.565 1083.85 356.06 0.0 0.0 0.0 0.0 1062.43 35.2011 1025.31 41.1316 0.0 0.0 1064.36 84.1798 1074.16 82.1751 0.0 0.0 0.0 0.0 1056.5 86.08 1054.6 150.681 1023.31 207.416 1066.33 209.294 1056.61 287.636 1074.15 350.279 1056.45 211.326 1056.45 289.594 1083.89 359.979 0.0 0.0 0.0 0.0 1056.47 35.1476 1017.41 39.1321 0.0 0.0 1056.59 84.1075 1070.26 80.2259 0.0 0.0 0.0 0.0 1052.57 84.2108 1052.56 152.65 1021.3 209.286 1068.2 207.344 1056.54 287.617 1072.23 350.233 1052.55 209.39 1054.52 289.549 1078.08 354.146 0.0 0.0 0.0 0.0 1052.6 33.2458 1009.63 39.1884 1007.57 54.7244 1048.7 82.2054 1054.59 80.1882 0.0 0.0 0.0 0.0 1044.81 84.1412 1044.78 148.659 1017.37 207.366 1054.55 201.513 1054.5 285.667 1074.11 350.212 1040.86 207.374 1052.55 287.557 1076.12 352.131 0.0 0.0 0.0 0.0 1042.91 27.3927 1011.57 37.2397 0.0 0.0 1042.85 80.1721 1054.55 72.3901 0.0 0.0 0.0 0.0 1040.86 84.0738 1040.87 148.684 1013.53 209.331 1056.49 197.658 1048.67 279.804 1070.25 346.301 1040.89 207.369 1040.94 283.701 1074.2 350.222 0.0 0.0 0.0 0.0 1038.85 27.4158 997.875 37.2206 991.992 52.758 1036.99 76.2901 1048.67 70.4941 0.0 0.0 0.0 0.0 1034.97 82.1626 1038.89 146.801 1015.43 207.365 1050.63 197.661 1042.84 283.65 1070.27 346.327 1038.81 207.378 1040.8 285.64 1078.01 352.143 0.0 0.0 0.0 0.0 0.0 0.0 999.769 37.1793 988.057 48.8886 1025.29 72.3953 0.0 0.0 0.0 0.0 0.0 0.0 1027.15 78.2281 1034.95 146.7 1011.52 203.466 1036.97 195.659 1038.84 275.888 1068.27 342.384 1027.22 199.584 1033.04 279.773 1074.19 350.192 0.0 0.0 989.987 39.1876 0.0 0.0 995.9 37.0845 980.237 44.9991 1025.25 70.3691 1036.95 66.4932 0.0 0.0 0.0 0.0 1023.23 74.3269 1027.25 140.869 1009.63 195.67 1035.03 193.637 1027.21 273.957 1070.14 346.326 1023.3 195.607 1025.22 275.899 1072.21 350.25 0.0 0.0 980.213 39.1663 0.0 0.0 991.921 35.2005 976.3 41.1234 1025.22 66.5329 1038.91 62.5694 0.0 0.0 0.0 0.0 1017.35 70.3663 1025.17 136.929 1009.52 195.588 1036.99 195.675 1023.17 273.908 1072.15 350.175 1009.53 195.589 962.561 262.151 929.334 354.128 0.0 0.0 976.313 37.2082 0.0 0.0 989.969 31.2803 974.262 41.1532 1015.42 62.6421 1025.21 54.8305 0.0 0.0 0.0 0.0 1011.5 68.4293 1023.19 133.14 1007.57 193.758 1025.19 193.708 1017.39 275.838 1064.34 338.519 1005.63 193.678 962.63 271.929 931.302 365.884 0.0 0.0 0.0 0.0 0.0 0.0 978.271 33.2498 962.68 39.1792 1007.6 62.6072 1013.45 56.7509 0.0 0.0 0.0 0.0 1007.64 66.524 1019.34 131.132 1007.51 189.791 1009.54 189.744 1011.56 275.837 1058.55 338.447 993.961 185.904 976.226 271.974 974.354 367.841 0.0 0.0 962.592 37.2105 0.0 0.0 974.348 27.3538 960.639 39.1735 997.873 62.6116 991.967 58.7329 0.0 0.0 0.0 0.0 1007.62 64.58 1015.45 131.075 1003.65 191.751 993.962 187.796 1001.71 269.953 1050.66 324.825 993.99 191.698 978.226 269.99 980.202 363.895 0.0 0.0 960.71 35.1875 0.0 0.0 978.218 23.5812 958.627 39.2322 993.98 60.6291 988.046 58.6699 0.0 0.0 0.0 0.0 1005.67 60.6857 1011.54 129.073 999.762 183.941 993.876 178.056 989.971 260.214 1042.8 320.902 997.806 181.929 978.238 260.2 1040.88 322.821 0.0 0.0 958.656 37.099 0.0 0.0 966.556 29.3296 948.96 39.0799 991.994 58.7443 984.122 56.7788 0.0 0.0 0.0 0.0 997.817 64.5307 1009.56 129.158 993.944 187.802 995.846 179.983 990.008 262.197 1036.94 328.672 999.788 183.891 972.419 264.137 978.23 363.925 0.0 0.0 952.791 33.2692 0.0 0.0 964.544 25.4163 947.003 41.0785 991.986 56.7619 986.075 54.8351 0.0 0.0 0.0 0.0 995.869 58.7116 1007.6 127.201 992.037 191.732 993.887 193.649 991.909 271.943 1021.29 324.775 997.848 195.648 966.56 277.846 978.235 367.829 0.0 0.0 947.059 35.237 0.0 0.0 966.512 23.574 945.037 39.2102 984.117 58.7159 970.443 60.6318 0.0 0.0 0.0 0.0 993.908 58.6983 1007.58 125.245 992.002 187.806 988.033 193.693 992.02 275.913 1009.52 336.51 993.952 195.714 966.555 285.621 974.313 365.853 0.0 0.0 946.912 35.2088 0.0 0.0 962.619 23.5243 943.069 39.2159 980.191 58.6655 968.483 56.7842 0.0 0.0 0.0 0.0 991.998 56.8125 1007.56 123.258 991.993 185.888 980.209 193.641 982.164 287.588 978.268 369.791 993.903 195.669 974.338 287.645 972.367 367.867 0.0 0.0 944.931 35.2433 0.0 0.0 958.724 25.4684 937.153 39.1144 978.248 58.7171 968.482 60.6477 0.0 0.0 0.0 0.0 990.02 56.7874 1005.67 127.196 991.947 187.851 988.047 193.683 986.065 287.616 911.679 367.853 993.985 195.716 964.608 287.625 931.348 367.791 0.0 0.0 941.033 35.19 0.0 0.0 952.798 25.4169 933.279 44.9987 978.238 58.7373 970.436 60.6736 0.0 0.0 0.0 0.0 989.952 58.6885 1005.57 129.053 991.935 187.822 991.917 191.745 984.121 283.698 0.0 0.0 997.864 195.635 968.503 287.582 968.453 367.801 931.326 35.1805 937.185 37.208 0.0 0.0 958.697 29.3606 929.35 41.1551 978.192 60.6679 970.426 62.6117 0.0 0.0 0.0 0.0 986.077 58.7224 1001.72 129.101 990.035 191.7 993.905 191.677 966.529 270.008 0.0 0.0 999.794 193.71 974.329 275.854 978.229 358.036 0.0 0.0 931.303 37.1416 0.0 0.0 956.698 27.385 929.349 44.9825 978.215 62.6136 976.292 60.6361 962.631 111.524 0.0 0.0 980.256 64.5806 995.923 129.133 991.887 191.767 1005.66 193.744 986.09 289.571 972.409 377.589 993.914 197.624 948.968 283.7 923.462 367.792 0.0 0.0 931.235 37.2414 0.0 0.0 950.876 31.2759 927.393 48.8681 976.271 64.5783 972.366 64.5307 947.023 97.8338 925.408 91.9604 980.195 66.4453 995.837 131.106 984.151 195.653 1003.71 195.675 982.16 289.582 968.497 379.537 993.872 199.595 958.671 285.643 925.416 365.924 0.0 0.0 929.264 39.1468 0.0 0.0 948.887 33.2674 919.548 41.1079 972.379 64.5367 962.677 56.7725 943.028 86.0225 913.721 99.6984 978.25 68.4001 994.001 131.149 978.279 201.519 1005.64 197.615 978.286 299.364 962.585 383.48 992.0 205.421 954.805 289.598 921.505 371.717 0.0 0.0 925.41 39.0815 0.0 0.0 944.967 35.1502</_>
      <_>0.0 0.0 1085.88 88.0254 1099.59 86.0778 0.0 0.0 0.0 0.0 1072.22 90.0028 1070.13 158.474 1033.05 201.538 1087.84 205.456 1036.9 268.012 1021.3 334.623 1072.22 209.31 1058.47 279.792 1081.93 356.088 0.0 0.0 0.0 0.0 1072.26 37.1253 1038.87 41.132 0.0 0.0 1076.06 86.1043 1087.84 84.099 1058.49 148.722 0.0 0.0 1068.22 89.9717 1062.4 162.307 1027.17 207.364 1078.04 209.381 1023.23 277.801 997.864 346.325 1066.27 211.372 1058.45 289.513 1083.84 359.97 0.0 0.0 0.0 0.0 1070.17 35.2211 1025.27 39.1793 0.0 0.0 1068.29 86.0312 1080.01 84.0461 0.0 0.0 0.0 0.0 1060.47 88.0068 1058.52 152.605 1025.26 205.438 1066.32 207.385 1017.36 264.129 997.807 336.576 1058.47 211.277 1056.52 289.565 1083.85 356.06 0.0 0.0 0.0 0.0 1062.43 35.2011 1025.31 41.1316 0.0 0.0 1064.36 84.1798 1074.16 82.1751 0.0 0.0 0.0 0.0 1056.5 86.08 1054.6 150.681 1023.31 207.416 1066.33 209.294 1056.61 287.636 1074.15 350.279 1056.45 211.326 1056.45 289.594 1083.89 359.979 0.0 0.0 0.0 0.0 1056.47 35.1476 1017.41 39.1321 0.0 0.0 1056.59 84.1075 1070.26 80.2259 0.0 0.0 0.0 0.0 1052.57 84.2108 1052.56 152.65 1021.3 209.286 1068.2 207.344 1056.54 287.617 1072.23 350.233 1052.55 209.39 1054.52 289.549 1078.08 354.146 0.0 0.0 0.0 0.0 1052.6 33.2458 1009.63 39.1884 1007.57 54.7244 1048.7 82.2054 1054.59 80.1882 0.0 0.0 0.0 0.0 1044.81 84.1412 1044.78 148.659 1017.37 207.366 1054.55 201.513 1054.5 285.667 1074.11 350.212 1040.86 207.374 1052.55 287.557 1076.12 352.131 0.0 0.0 0.0 0.0 1042.91 27.3927 1011.57 37.2397 0.0 0.0 1042.85 80.1721 1054.55 72.3901 0.0 0.0 0.0 0.0 1040.86 84.0738 1040.87 148.684 1013.53 209.331 1056.49 197.658 1048.67 279.804 1070.25 346.301 1040.89 207.369 1040.94 283.701 1074.2 350.222 0.0 0.0 0.0 0.0 1038.85 27.4158 997.875 37.2206 991.992 52.758 1036.99 76.2901 1048.67 70.4941 0.0 0.0 0.0 0.0 1034.97 82.1626 1038.89 146.801 1015.43 207.365 1050.63 197.661 1042.84 283.65 1070.27 346.327 1038.81 207.378 1040.8 285.64 1078.01 352.143 0.0 0.0 0.0 0.0 0.0 0.0 999.769 37.1793 988.057 48.8886 1025.29 72.3953 0.0 0.0 0.0 0.0 0.0 0.0 1027.15 78.2281 1034.95 146.7 1011.52 203.466 1036.97 195.659 1038.84 275.888 1068.27 342.384 1027.22 199.584 1033.04 279.773 1074.19 350.192 0.0 0.0 989.987 39.1876 0.0 0.0 995.9 37.0845 980.237 44.9991 1025.25 70.3691 1036.95 66.4932 0.0 0.0 0.0 0.0 1023.23 74.3269 1027.25 140.869 1009.63 195.67 1035.03 193.637 1027.21 273.957 1070.14 346.326 1023.3 195.607 1025.22 275.899 1072.21 350.25 0.0 0.0 980.213 39.1663 0.0 0.0 991.921 35.2005 976.3 41.1234 1025.22 66.5329 1038.91 62.5694 0.0 0.0 0.0 0.0 1017.35 70.3663 1025.17 136.929 1009.52 195.588 1036.99 195.675 1023.17 273.908 1072.15 350.175 1009.53 195.589 962.561 262.151 929.334 354.128 0.0 0.0 976.313 37.2082 0.0 0.0 989.969 31.2803 974.262 41.1532 1015.42 62.6421 1025.21 54.8305 0.0 0.0 0.0 0.0 1011.5 68.4293 1023.19 133.14 1007.57 193.758 1025.19 193.708 1017.39 275.838 1064.34 338.519 1005.63 193.678 962.63 271.929 931.302 365.884 0.0 0.0 0.0 0.0 0.0 0.0 978.271 33.2498 962.68 39.1792 1007.6 62.6072 1013.45 56.7509 0.0 0.0 0.0 0.0 1007.64 66.524 1019.34 131.132 1007.51 189.791 1009.54 189.744 1011.56 275.837 1058.55 338.447 993.961 185.904 976.226 271.974 974.354 367.841 0.0 0.0 962.592 37.2105 0.0 0.0 974.348 27.3538 960.639 39.1735 997.873 62.6116 991.967 58.7329 0.0 0.0 0.0 0.0 1007.62 64.58 1015.45 131.075 1003.65 191.751 993.962 187.796 1001.71 269.953 1050.66 324.825 993.99 191.698 978.226 269.99 980.202 363.895 0.0 0.0 960.71 35.1875 0.0 0.0 978.218 23.5812 958.627 39.2322 993.98 60.6291 988.046 58.6699 0.0 0.0 0.0 0.0 1005.67 60.6857 1011.54 129.073 999.762 183.941 993.876 178.056 989.971 260.214 1042.8 320.902 997.806 181.929 978.238 260.2 1040.88 322.821 0.0 0.0 958.656 37.099 0.0 0.0 966.556 29.3296 948.96 39.0799 991.994 58.7443 984.122 56.7788 0.0 0.0 0.0 0.0 997.817 64.5307 1009.56 129.158 993.944 187.802 995.846 179.983 990.008 262.197 1036.94 328.672 999.788 183.891 972.419 264.137 978.23 363.925 0.0 0.0 952.791 33.2692 0.0 0.0 964.544 25.4163 947.003 41.0785 991.986 56.7619 986.075 54.8351 0.0 0.0 0.0 0.0 995.869 58.7116 1007.6 127.201 992.037 191.732 993.887 193.649 991.909 271.943 1021.29 324.775 997.848 195.648 966.56 277.846 978.235 367.829 0.0 0.0 947.059 35.237 0.0 0.0 966.512 23.574 945.037 39.2102 984.117 58.7159 970.443 60.6318 0.0 0.0 0.0 0.0 993.908 58.6983 1007.58 125.245 992.002 187.806 988.033 193.693 992.02 275.913 1009.52 336.51 993.952 195.714 966.555 285.621 974.313 365.853 0.0 0.0 946.912 35.2088 0.0 0.0 962.619 23.5243 943.069 39.2159 980.191 58.6655 968.483 56.7842 0.0 0.0 0.0 0.0 991.998 56.8125 1007.56 123.258 991.993 185.888 980.209 193.641 982.164 287.588 978.268 369.791 993.903 195.669 974.338 287.645 972.367 367.867 0.0 0.0 944.931 35.2433 0.0 0.0 958.724 25.4684 937.153 39.1144 978.248 58.7171 968.482 60.6477 0.0 0.0 0.0 0.0 990.02 56.7874 1005.67 127.196 991.947 187.851 988.047 193.683 986.065 287.616 911.679 367.853 993.985 195.716 964.608 287.625 931.348 367.791 0.0 0.0 941.033 35.19 0.0 0.0 952.798 25.4169 933.279 44.9987 978.238 58.7373 970.436 60.6736 0.0 0.0 0.0 0.0 989.952 58.6885 1005.57 129.053 991.935 187.822 991.917 191.745 984.121 283.698 0.0 0.0 997.864 195.635 968.503 287.582 968.453 367.801 931.326 35.1805 937.185 37.208 0.0 0.0 958.697 29.3606 929.35 41.1551 978.192 60.6679 970.426 62.6117 0.0 0.0 0.0 0.0 986.077 58.7224 1001.72 129.101 990.035 191.7 993.905 191.677 966.529 270.008 0.0 0.0 999.794 193.71 974.329 275.854 978.229 358.036 0.0 0.0 931.303 37.1416 0.0 0.0 956.698 27.385 929.349 44.9825 978.215 62.6136 976.292 60.6361 962.631 111.524 0.0 0.0 980.256 64.5806 995.923 129.133 991.887 191.767 1005.66 193.744 986.09 289.571 972.409 377.589 993.914 197.624 948.968 283.7 923.462 367.792 0.0 0.0 931.235 37.2414 0.0 0.0 950.876 31.2759 927.393 48.8681 976.271 64.5783 972.366 64.5307 947.023 97.8338 925.408 91.9604 980.195 66.4453 995.837 131.106 984.151 195.653 1003.71 195.675 982.16 289.582 968.497 379.537 993.872 199.595 958.671 285.643 925.416 365.924 0.0 0.0 929.264 39.1468 0.0 0.0 948.887 33.2674 919.548 41.1079 972.379 64.5367 962.677 56.7725 943.028 86.0225 913.721 99.6984 978.25 68.4001 994.001 131.149 978.279 201.519 1005.64 197.615 978.286 299.364 962.585 383.48 992.0 205.421 954.805 289.598 921.505 371.717 0.0 0.0 925.41 39.0815 0.0 0.0 944.967 35.1502 925.411 48.941 966.514 60.6601 956.728 54.8126 943.057 84.1725 913.734 97.7734 978.273 68.4338 994.011 133.102 978.298 201.547 984.12 195.618 962.624 289.588 913.61 373.669 991.925 201.516 962.595 289.578 925.432 371.718 0.0 0.0 927.355 39.2091 0.0 0.0 945.038 33.279 919.581 48.8859 964.633 62.6136 958.654 54.8275 941.1 84.0671 913.618 93.889 976.351 68.5196 993.929 133.082 976.301 207.35 991.94 197.611 974.334 299.347 911.682 373.683 991.924 207.351 956.721 291.522 921.547 371.719 0.0 0.0 923.468 39.1398 0.0 0.0 944.975 35.1802 921.485 50.8431 962.667 62.6198 952.821 54.8013 933.262 78.2746 903.904 88.0152 976.257 68.56 992.042 133.058 976.317 201.5 989.994 193.737 970.412 285.666 911.709 369.767 989.991 201.495 956.759 285.648 921.548 367.862 0.0 0.0 921.538 39.1948 0.0 0.0 944.971 35.1993 917.665 50.8122 962.543 58.7452 948.912 52.8578 931.244 74.342 900.054 84.1111 974.349 70.3698 992.039 133.019 976.346 197.675 978.229 193.74 958.694 281.739 913.633 367.826 984.144 199.58 960.599 285.645 923.478 367.843 0.0 0.0 919.583 39.1956 0.0 0.0 943.053 37.1234 919.577 52.8328 962.531 62.5877 948.903 52.8419 929.366 72.4374 898.016 84.0553 974.301 70.5094 991.926 135.011 974.337 207.354 986.071 195.667 972.389 289.549 909.797 369.766 991.891 203.496 956.717 287.573 919.594 367.851 0.0 0.0 919.606 43.048 0.0 0.0 941.106 37.1662</_>
      <_>1007.57 54.7244 1048.7 82.2054 1054.59 80.1882 0.0 0.0 0.0 0.0 1044.81 84.1412 1044.78 148.659 1017.37 207.366 1054.55 201.513 1054.5 285.667 1074.11 350.212 1040.86 207.374 1052.55 287.557 1076.12 352.131 0.0 0.0 0.0 0.0 1042.91 27.3927 1011.57 37.2397 0.0 0.0 1042.85 80.1721 1054.55 72.3901 0.0 0.0 0.0 0.0 1040.86 84.0738 1040.87 148.684 1013.53 209.331 1056.49 197.658 1048.67 279.804 1070.25 346.301 1040.89 207.369 1040.94 283.701 1074.2 350.222 0.0 0.0 0.0 0.0 1038.85 27.4158 997.875 37.2206 991.992 52.758 1036.99 76.2901 1048.67 70.4941 0.0 0.0 0.0 0.0 1034.97 82.1626 1038.89 146.801 1015.43 207.365 1050.63 197.661 1042.84 283.65 1070.27 346.327 1038.81 207.378 1040.8 285.64 1078.01 352.143 0.0 0.0 0.0 0.0 0.0 0.0 999.769 37.1793 988.057 48.8886 1025.29 72.3953 0.0 0.0 0.0 0.0 0.0 0.0 1027.15 78.2281 1034.95 146.7 1011.52 203.466 1036.97 195.659 1038.84 275.888 1068.27 342.384 1027.22 199.584 1033.04 279.773 1074.19 350.192 0.0 0.0 989.987 39.1876 0.0 0.0 995.9 37.0845 980.237 44.9991 1025.25 70.3691 1036.95 66.4932 0.0 0.0 0.0 0.0 1023.23 74.3269 1027.25 140.869 1009.63 195.67 1035.03 193.637 1027.21 273.957 1070.14 346.326 1023.3 195.607 1025.22 275.899 1072.21 350.25 0.0 0.0 980.213 39.1663 0.0 0.0 991.921 35.2005 976.3 41.1234 1025.22 66.5329 1038.91 62.5694 0.0 0.0 0.0 0.0 1017.35 70.3663 1025.17 136.929 1009.52 195.588 1036.99 195.675 1023.17 273.908 1072.15 350.175 1009.53 195.589 962.561 262.151 929.334 354.128 0.0 0.0 976.313 37.2082 0.0 0.0 989.969 31.2803 974.262 41.1532 1015.42 62.6421 1025.21 54.8305 0.0 0.0 0.0 0.0 1011.5 68.4293 1023.19 133.14 1007.57 193.758 1025.19 193.708 1017.39 275.838 1064.34 338.519 1005.63 193.678 962.63 271.929 931.302 365.884 0.0 0.0 0.0 0.0 0.0 0.0 978.271 33.2498 962.68 39.1792 1007.6 62.6072 1013.45 56.7509 0.0 0.0 0.0 0.0 1007.64 66.524 1019.34 131.132 1007.51 189.791 1009.54 189.744 1011.56 275.837 1058.55 338.447 993.961 185.904 976.226 271.974 974.354 367.841 0.0 0.0 962.592 37.2105 0.0 0.0 974.348 27.3538 960.639 39.1735 997.873 62.6116 991.967 58.7329 0.0 0.0 0.0 0.0 1007.62 64.58 1015.45 131.075 1003.65 191.751 993.962 187.796 1001.71 269.953 1050.66 324.825 993.99 191.698 978.226 269.99 980.202 363.895 0.0 0.0 960.71 35.1875 0.0 0.0 978.218 23.5812 958.627 39.2322 993.98 60.6291 988.046 58.6699 0.0 0.0 0.0 0.0 1005.67 60.6857 1011.54 129.073 999.762 183.941 993.876 178.056 989.971 260.214 1042.8 320.902 997.806 181.929 978.238 260.2 1040.88 322.821 0.0 0.0 958.656 37.099 0.0 0.0 966.556 29.3296 948.96 39.0799 991.994 58.7443 984.122 56.7788 0.0 0.0 0.0 0.0 997.817 64.5307 1009.56 129.158 993.944 187.802 995.846 179.983 990.008 262.197 1036.94 328.672 999.788 183.891 972.419 264.137 978.23 363.925 0.0 0.0 952.791 33.2692 0.0 0.0 964.544 25.4163 947.003 41.0785 991.986 56.7619 986.075 54.8351 0.0 0.0 0.0 0.0 995.869 58.7116 1007.6 127.201 992.037 191.732 993.887 193.649 991.909 271.943 1021.29 324.775 997.848 195.648 966.56 277.846 978.235 367.829 0.0 0.0 947.059 35.237 0.0 0.0 966.512 23.574 945.037 39.2102 984.117 58.7159 970.443 60.6318 0.0 0.0 0.0 0.0 993.908 58.6983 1007.58 125.245 992.002 187.806 988.033 193.693 992.02 275.913 1009.52 336.51 993.952 195.714 966.555 285.621 974.313 365.853 0.0 0.0 946.912 35.2088 0.0 0.0 962.619 23.5243 943.069 39.2159 980.191 58.6655 968.483 56.7842 0.0 0.0 0.0 0.0 991.998 56.8125 1007.56 123.258 991.993 185.888 980.209 193.641 982.164 287.588 978.268 369.791 993.903 195.669 974.338 287.645 972.367 367.867 0.0 0.0 944.931 35.2433 0.0 0.0 958.724 25.4684 937.153 39.1144 978.248 58.7171 968.482 60.6477 0.0 0.0 0.0 0.0 990.02 56.7874 1005.67 127.196 991.947 187.851 988.047 193.683 986.065 287.616 911.679 367.853 993.985 195.716 964.608 287.625 931.348 367.791 0.0 0.0 941.033 35.19 0.0 0.0 952.798 25.4169 933.279 44.9987 978.238 58.7373 970.436 60.6736 0.0 0.0 0.0 0.0 989.952 58.6885 1005.57 129.053 991.935 187.822 991.917 191.745 984.121 283.698 0.0 0.0 997.864 195.635 968.503 287.582 968.453 367.801 931.326 35.1805 937.185 37.208 0.0 0.0 958.697 29.3606 929.35 41.1551 978.192 60.6679 970.426 62.6117 0.0 0.0 0.0 0.0 986.077 58.7224 1001.72 129.101 990.035 191.7 993.905 191.677 966.529 270.008 0.0 0.0 999.794 193.71 974.329 275.854 978.229 358.036 0.0 0.0 931.303 37.1416 0.0 0.0 956.698 27.385 929.349 44.9825 978.215 62.6136 976.292 60.6361 962.631 111.524 0.0 0.0 980.256 64.5806 995.923 129.133 991.887 191.767 1005.66 193.744 986.09 289.571 972.409 377.589 993.914 197.624 948.968 283.7 923.462 367.792 0.0 0.0 931.235 37.2414 0.0 0.0 950.876 31.2759 927.393 48.8681 976.271 64.5783 972.366 64.5307 947.023 97.8338 925.408 91.9604 980.195 66.4453 995.837 131.106 984.151 195.653 1003.71 195.675 982.16 289.582 968.497 379.537 993.872 199.595 958.671 285.643 925.416 365.924 0.0 0.0 929.264 39.1468 0.0 0.0 948.887 33.2674 919.548 41.1079 972.379 64.5367 962.677 56.7725 943.028 86.0225 913.721 99.6984 978.25 68.4001 994.001 131.149 978.279 201.519 1005.64 197.615 978.286 299.364 962.585 383.48 992.0 205.421 954.805 289.598 921.505 371.717 0.0 0.0 925.41 39.0815 0.0 0.0 944.967 35.1502 925.411 48.941 966.514 60.6601 956.728 54.8126 943.057 84.1725 913.734 97.7734 978.273 68.4338 994.011 133.102 978.298 201.547 984.12 195.618 962.624 289.588 913.61 373.669 991.925 201.516 962.595 289.578 925.432 371.718 0.0 0.0 927.355 39.2091 0.0 0.0 945.038 33.279 919.581 48.8859 964.633 62.6136 958.654 54.8275 941.1 84.0671 913.618 93.889 976.351 68.5196 993.929 133.082 976.301 207.35 991.94 197.611 974.334 299.347 911.682 373.683 991.924 207.351 956.721 291.522 921.547 371.719 0.0 0.0 923.468 39.1398 0.0 0.0 944.975 35.1802 921.485 50.8431 962.667 62.6198 952.821 54.8013 933.262 78.2746 903.904 88.0152 976.257 68.56 992.042 133.058 976.317 201.5 989.994 193.737 970.412 285.666 911.709 369.767 989.991 201.495 956.759 285.648 921.548 367.862 0.0 0.0 921.538 39.1948 0.0 0.0 944.971 35.1993 917.665 50.8122 962.543 58.7452 948.912 52.8578 931.244 74.342 900.054 84.1111 974.349 70.3698 992.039 133.019 976.346 197.675 978.229 193.74 958.694 281.739 913.633 367.826 984.144 199.58 960.599 285.645 923.478 367.843 0.0 0.0 919.583 39.1956 0.0 0.0 943.053 37.1234 919.577 52.8328 962.531 62.5877 948.903 52.8419 929.366 72.4374 898.016 84.0553 974.301 70.5094 991.926 135.011 974.337 207.354 986.071 195.667 972.389 289.549 909.797 369.766 991.891 203.496 956.717 287.573 919.594 367.851 0.0 0.0 919.606 43.048 0.0 0.0 941.106 37.1662 917.572 52.7867 962.55 60.6462 948.929 52.7632 929.37 70.4697 896.022 80.1798 974.284 70.5342 991.98 135.025 976.247 207.394 984.133 191.766 974.337 283.711 0.0 0.0 991.987 199.583 952.832 283.705 917.606 365.845 0.0 0.0 917.654 43.0289 0.0 0.0 941.059 37.2123 915.704 52.8369 960.645 60.6406 946.942 50.8809 927.421 68.514 890.19 70.5035 972.383 72.3985 991.908 134.996 976.233 205.452 978.231 193.661 931.316 275.889 903.936 365.847 991.914 201.516 954.769 285.647 917.661 367.799 0.0 0.0 919.558 43.0813 0.0 0.0 944.969 37.1871 915.607 52.8934 960.685 64.5927 946.983 54.7303 927.384 70.4917 890.247 70.4481 974.274 74.3304 991.877 138.898 974.347 207.387 976.313 195.618 939.139 281.742 907.808 367.821 990.027 203.483 960.649 287.634 921.526 367.837 0.0 0.0 915.71 43.0755 0.0 0.0 941.086 39.1474 913.724 52.8207 960.667 66.4825 946.924 54.7542 921.561 70.4032 886.322 68.558 974.325 72.4675 990.04 138.924 976.295 207.339 972.382 195.683 939.121 285.664 907.82 367.819 989.992 205.428 960.683 289.601 921.551 367.814 0.0 0.0 915.601 41.1648 0.0 0.0 939.095 39.0993 911.737 52.8354 960.67 66.5052 946.965 54.7799 919.557 70.4469 880.421 70.4763 974.274 74.3341 991.853 138.881 976.365 203.501 970.437 195.633 937.169 285.67 907.825 369.79 988.034 203.477 960.683 289.613 921.521 369.791 0.0 0.0 913.711 44.9787 0.0 0.0 935.204 39.1434</_>
      <_>917.572 52.7867 962.55 60.6462 948.929 52.7632 929.37 70.4697 896.022 80.1798 974.284 70.5342 991.98 135.025 976.247 207.394 984.133 191.766 974.337 283.711 0.0 0.0 991.987 199.583 952.832 283.705 917.606 365.845 0.0 0.0 917.654 43.0289 0.0 0.0 941.059 37.2123 915.704 52.8369 960.645 60.6406 946.942 50.8809 927.421 68.514 890.19 70.5035 972.383 72.3985 991.908 134.996 976.233 205.452 978.231 193.661 931.316 275.889 903.936 365.847 991.914 201.516 954.769 285.647 917.661 367.799 0.0 0.0 919.558 43.0813 0.0 0.0 944.969 37.1871 915.607 52.8934 960.685 64.5927 946.983 54.7303 927.384 70.4917 890.247 70.4481 974.274 74.3304 991.877 138.898 974.347 207.387 976.313 195.618 939.139 281.742 907.808 367.821 990.027 203.483 960.649 287.634 921.526 367.837 0.0 0.0 915.71 43.0755 0.0 0.0 941.086 39.1474 913.724 52.8207 960.667 66.4825 946.924 54.7542 921.561 70.4032 886.322 68.558 974.325 72.4675 990.04 138.924 976.295 207.339 972.382 195.683 939.121 285.664 907.82 367.819 989.992 205.428 960.683 289.601 921.551 367.814 0.0 0.0 915.601 41.1648 0.0 0.0 939.095 39.0993 911.737 52.8354 960.67 66.5052 946.965 54.7799 919.557 70.4469 880.421 70.4763 974.274 74.3341 991.853 138.881 976.365 203.501 970.437 195.633 937.169 285.67 907.825 369.79 988.034 203.477 960.683 289.613 921.521 369.791 0.0 0.0 913.711 44.9787 0.0 0.0 935.204 39.1434 911.696 54.7194 960.586 66.5468 944.98 54.8165 915.639 68.4286 872.585 70.3881 972.374 76.2846 990.005 140.896 978.224 205.456 966.555 195.633 937.199 285.636 909.799 369.798 988.032 203.469 964.568 291.546 923.465 369.812 0.0 0.0 913.731 48.8962 0.0 0.0 933.268 41.0458 911.686 54.8122 960.613 68.4351 946.92 56.7092 915.651 70.4151 870.7 70.4164 970.409 78.2603 991.884 142.851 978.267 207.401 974.341 199.574 935.246 287.588 903.914 367.83 984.133 207.415 960.633 291.552 921.516 369.786 0.0 0.0 913.741 50.8583 0.0 0.0 933.269 41.1334 905.901 54.8562 958.718 68.4618 944.984 56.7152 913.608 68.5478 868.715 70.3948 968.492 80.2212 990.03 144.77 978.302 209.269 970.451 197.625 931.322 281.752 903.903 365.891 988.059 207.395 958.694 291.515 923.457 369.759 0.0 0.0 913.599 50.9051 0.0 0.0 931.32 41.1356 905.85 58.7246 958.706 70.4293 945.007 66.4453 903.896 70.4249 868.647 70.4867 966.566 80.2125 991.866 144.804 978.313 209.385 966.538 205.409 931.351 291.549 907.818 369.804 984.122 211.292 960.664 303.243 925.403 371.752 897.997 39.1471 913.597 52.8723 0.0 0.0 931.342 43.0122 911.705 64.519 958.681 70.4079 944.953 64.5279 903.893 70.4047 864.743 72.3881 968.481 82.1278 991.934 146.634 978.352 209.38 966.529 199.562 933.243 289.574 903.922 369.783 984.164 209.32 958.7 299.353 919.603 369.824 907.797 50.8245 913.734 54.7043 0.0 0.0 933.282 41.1246 911.74 64.5902 958.668 70.4201 943.063 66.4443 907.796 70.403 0.0 0.0 968.465 80.2394 991.947 146.645 980.271 209.266 962.664 199.537 937.185 291.504 911.68 371.719 982.186 207.412 966.511 299.335 929.333 375.65 911.552 52.7446 913.718 54.7481 0.0 0.0 931.356 43.0458 909.794 64.5807 956.763 70.4338 943.012 66.4872 0.0 0.0 0.0 0.0 966.555 80.2225 991.947 144.809 982.154 209.268 962.641 197.616 935.247 289.546 911.681 373.703 984.12 207.365 966.503 297.39 931.29 375.663 899.987 39.1866 913.628 54.7841 0.0 0.0 929.34 46.9406 907.826 64.566 956.725 70.4135 941.088 64.5579 909.729 70.4364 874.55 70.5036 966.567 80.2401 991.978 144.8 982.197 207.374 962.638 195.71 937.19 287.582 913.627 373.702 984.117 205.426 966.502 295.424 935.239 379.527 0.0 0.0 911.714 54.8595 0.0 0.0 927.358 48.8882 911.727 66.45 956.748 68.5207 941.111 58.699 911.665 70.5089 870.669 70.4724 966.556 82.1694 991.943 146.68 980.289 209.276 962.666 197.605 937.163 289.539 909.769 377.629 982.174 207.34 964.584 299.323 933.256 381.49 0.0 0.0 911.762 56.709 0.0 0.0 923.496 50.7896 911.719 66.5405 954.783 68.5123 937.194 58.6953 0.0 0.0 0.0 0.0 966.561 82.1581 991.991 146.674 982.184 207.413 962.641 195.67 937.167 287.618 909.796 377.614 984.115 205.407 964.58 297.367 935.207 381.494 0.0 0.0 913.747 56.7596 0.0 0.0 927.381 48.9148 909.771 66.5506 950.913 68.5296 935.209 60.6252 899.991 70.4904 868.671 72.3993 966.56 82.145 992.01 146.712 980.268 209.384 962.604 195.655 935.233 287.641 911.736 379.516 988.012 205.424 970.414 297.409 958.705 381.478 0.0 0.0 913.652 58.676 0.0 0.0 925.401 50.8033 909.775 68.4008 950.912 70.4391 935.194 64.575 898.02 70.4778 866.776 72.4055 966.569 82.2093 993.845 146.722 982.213 209.301 962.621 197.616 937.175 289.602 913.623 379.541 986.116 207.369 972.403 301.298 962.608 381.506 0.0 0.0 913.596 62.5821 0.0 0.0 917.628 50.8829 907.811 66.4904 950.876 72.3735 933.275 68.418 898.051 76.3226 866.76 78.2385 966.552 84.0461 992.037 146.684 984.127 209.265 962.664 201.541 935.217 291.534 913.658 379.581 988.048 209.299 974.351 301.324 962.618 381.534 0.0 0.0 903.902 54.8517 0.0 0.0 913.7 50.8962 909.799 68.4717 950.866 70.4822 933.285 66.519 0.0 0.0 0.0 0.0 966.522 84.0786 993.894 142.84 990.03 203.482 956.715 183.938 935.196 279.784 913.627 369.817 980.193 193.719 966.507 287.6 933.303 371.76 0.0 0.0 913.622 62.571 0.0 0.0 923.471 52.7836 909.797 68.4957 950.896 72.3742 933.268 68.4053 0.0 0.0 0.0 0.0 968.465 84.1179 993.902 144.726 991.863 203.483 954.799 189.776 931.344 281.747 907.84 371.74 978.312 195.667 962.637 289.545 931.261 373.691 0.0 0.0 911.766 62.576 0.0 0.0 923.451 52.8638 911.752 70.3711 950.915 74.3348 933.294 68.5322 0.0 0.0 0.0 0.0 968.469 84.0977 993.887 144.763 989.996 205.441 958.635 193.643 935.232 281.756 911.732 369.82 980.216 197.628 968.488 289.532 956.713 373.696 0.0 0.0 913.665 66.434 0.0 0.0 921.503 52.8542 911.671 70.4694 950.859 74.3644 931.364 68.5375 909.781 84.128 868.725 86.1367 968.51 84.1443 993.927 144.787 989.994 205.428 956.75 193.682 935.212 283.681 911.759 371.736 980.229 199.542 968.487 289.564 954.781 379.555 0.0 0.0 911.762 68.37 0.0 0.0 923.454 54.7377 907.854 70.493 950.859 78.25 931.37 70.4568 898.073 88.0675 853.067 97.8382 968.511 84.2038 993.986 146.662 991.971 205.4 958.655 197.616 931.358 289.553 909.779 375.668 980.182 207.352 966.524 299.316 931.338 379.543 0.0 0.0 911.687 68.3529 0.0 0.0 919.564 54.7767 907.813 70.4799 948.916 78.2838 931.265 70.4802 894.156 95.8711 845.199 101.729 968.502 84.2085 993.943 144.755 991.962 199.542 958.678 195.676 935.202 287.562 911.748 371.737 980.256 201.532 972.39 291.532 960.677 381.533 0.0 0.0 911.688 66.5383 0.0 0.0 923.487 54.7416 909.803 72.3896 948.965 78.2256 931.391 68.5348 903.952 95.8302 862.791 103.676 968.47 86.081 993.976 144.811 991.987 199.595 960.577 195.636 933.292 283.707 911.689 369.814 980.251 201.515 970.436 289.614 960.642 379.578 0.0 0.0 911.751 68.4665 0.0 0.0 927.383 54.8562 909.81 72.4213 948.901 78.2832 931.288 70.4268 900.05 99.774 855.049 113.506 968.448 86.0775 995.895 146.669 997.801 199.607 960.581 197.636 935.197 287.594 911.765 371.769 982.145 205.43 972.385 293.5 958.708 381.534 0.0 0.0 911.757 68.4909 0.0 0.0 927.38 56.7096 911.664 74.3442 948.883 78.2876 931.277 70.4168 899.955 101.8 856.941 117.315 966.565 86.1007 995.889 146.664 999.764 199.546 960.643 195.704 935.242 287.569 913.655 373.699 982.185 203.451 974.341 293.465 960.66 383.493 0.0 0.0 911.747 68.5295 0.0 0.0 927.41 56.8034 905.897 74.3648 946.99 80.2323 929.338 70.5091 898.083 103.699 855.004 125.243 966.562 86.0739 995.847 144.809 993.976 199.559 960.693 195.638 935.208 283.702 913.669 371.729 989.949 199.578 974.343 289.603 960.663 381.518 0.0 0.0 909.799 68.5523 0.0 0.0 929.278 58.6902 905.885 76.2787 947.041 80.2318 931.244 70.4696 898.027 105.625 851.112 129.16 968.445 86.1226 995.917 146.662 993.945 201.496 960.683 197.594 941.103 287.638 915.615 371.766 988.049 203.502 978.227 295.419 972.388 381.521 0.0 0.0 909.789 68.5643 0.0 0.0 929.285 58.7056 905.862 74.3994 946.945 82.1741 929.294 74.3777 897.989 111.542 853.121 142.795 966.524 86.0677 995.902 146.64 993.944 199.6 962.545 197.58 937.19 285.628 913.672 371.731 989.96 201.529 976.322 291.504 962.618 381.523 0.0 0.0 909.747 68.5476 0.0 0.0 927.41 56.7883</_>
      <_>911.696 54.7194 960.586 66.5468 944.98 54.8165 915.639 68.4286 872.585 70.3881 972.374 76.2846 990.005 140.896 978.224 205.456 966.555 195.633 937.199 285.636 909.799 369.798 988.032 203.469 964.568 291.546 923.465 369.812 0.0 0.0 913.731 48.8962 0.0 0.0 933.268 41.0458 911.686 54.8122 960.613 68.4351 946.92 56.7092 915.651 70.4151 870.7 70.4164 970.409 78.2603 991.884 142.851 978.267 207.401 974.341 199.574 935.246 287.588 903.914 367.83 984.133 207.415 960.633 291.552 921.516 369.786 0.0 0.0 913.741 50.8583 0.0 0.0 933.269 41.1334 905.901 54.8562 958.718 68.4618 944.984 56.7152 913.608 68.5478 868.715 70.3948 968.492 80.2212 990.03 144.77 978.302 209.269 970.451 197.625 931.322 281.752 903.903 365.891 988.059 207.395 958.694 291.515 923.457 369.759 0.0 0.0 913.599 50.9051 0.0 0.0 931.32 41.1356 905.85 58.7246 958.706 70.4293 945.007 66.4453 903.896 70.4249 868.647 70.4867 966.566 80.2125 991.866 144.804 978.313 209.385 966.538 205.409 931.351 291.549 907.818 369.804 984.122 211.292 960.664 303.243 925.403 371.752 897.997 39.1471 913.597 52.8723 0.0 0.0 931.342 43.0122 911.705 64.519 958.681 70.4079 944.953 64.5279 903.893 70.4047 864.743 72.3881 968.481 82.1278 991.934 146.634 978.352 209.38 966.529 199.562 933.243 289.574 903.922 369.783 984.164 209.32 958.7 299.353 919.603 369.824 907.797 50.8245 913.734 54.7043 0.0 0.0 933.282 41.1246 911.74 64.5902 958.668 70.4201 943.063 66.4443 907.796 70.403 0.0 0.0 968.465 80.2394 991.947 146.645 980.271 209.266 962.664 199.537 937.185 291.504 911.68 371.719 982.186 207.412 966.511 299.335 929.333 375.65 911.552 52.7446 913.718 54.7481 0.0 0.0 931.356 43.0458 909.794 64.5807 956.763 70.4338 943.012 66.4872 0.0 0.0 0.0 0.0 966.555 80.2225 991.947 144.809 982.154 209.268 962.641 197.616 935.247 289.546 911.681 373.703 984.12 207.365 966.503 297.39 931.29 375.663 899.987 39.1866 913.628 54.7841 0.0 0.0 929.34 46.9406 907.826 64.566 956.725 70.4135 941.088 64.5579 909.729 70.4364 874.55 70.5036 966.567 80.2401 991.978 144.8 982.197 207.374 962.638 195.71 937.19 287.582 913.627 373.702 984.117 205.426 966.502 295.424 935.239 379.527 0.0 0.0 911.714 54.8595 0.0 0.0 927.358 48.8882 911.727 66.45 956.748 68.5207 941.111 58.699 911.665 70.5089 870.669 70.4724 966.556 82.1694 991.943 146.68 980.289 209.276 962.666 197.605 937.163 289.539 909.769 377.629 982.174 207.34 964.584 299.323 933.256 381.49 0.0 0.0 911.762 56.709 0.0 0.0 923.496 50.7896 911.719 66.5405 954.783 68.5123 937.194 58.6953 0.0 0.0 0.0 0.0 966.561 82.1581 991.991 146.674 982.184 207.413 962.641 195.67 937.167 287.618 909.796 377.614 984.115 205.407 964.58 297.367 935.207 381.494 0.0 0.0 913.747 56.7596 0.0 0.0 927.381 48.9148 909.771 66.5506 950.913 68.5296 935.209 60.6252 899.991 70.4904 868.671 72.3993 966.56 82.145 992.01 146.712 980.268 209.384 962.604 195.655 935.233 287.641 911.736 379.516 988.012 205.424 970.414 297.409 958.705 381.478 0.0 0.0 913.652 58.676 0.0 0.0 925.401 50.8033 909.775 68.4008 950.912 70.4391 935.194 64.575 898.02 70.4778 866.776 72.4055 966.569 82.2093 993.845 146.722 982.213 209.301 962.621 197.616 937.175 289.602 913.623 379.541 986.116 207.369 972.403 301.298 962.608 381.506 0.0 0.0 913.596 62.5821 0.0 0.0 917.628 50.8829 907.811 66.4904 950.876 72.3735 933.275 68.418 898.051 76.3226 866.76 78.2385 966.552 84.0461 992.037 146.684 984.127 209.265 962.664 201.541 935.217 291.534 913.658 379.581 988.048 209.299 974.351 301.324 962.618 381.534 0.0 0.0 903.902 54.8517 0.0 0.0 913.7 50.8962 909.799 68.4717 950.866 70.4822 933.285 66.519 0.0 0.0 0.0 0.0 966.522 84.0786 993.894 142.84 990.03 203.482 956.715 183.938 935.196 279.784 913.627 369.817 980.193 193.719 966.507 287.6 933.303 371.76 0.0 0.0 913.622 62.571 0.0 0.0 923.471 52.7836 909.797 68.4957 950.896 72.3742 933.268 68.4053 0.0 0.0 0.0 0.0 968.465 84.1179 993.902 144.726 991.863 203.483 954.799 189.776 931.344 281.747 907.84 371.74 978.312 195.667 962.637 289.545 931.261 373.691 0.0 0.0 911.766 62.576 0.0 0.0 923.451 52.8638 911.752 70.3711 950.915 74.3348 933.294 68.5322 0.0 0.0 0.0 0.0 968.469 84.0977 993.887 144.763 989.996 205.441 958.635 193.643 935.232 281.756 911.732 369.82 980.216 197.628 968.488 289.532 956.713 373.696 0.0 0.0 913.665 66.434 0.0 0.0 921.503 52.8542 911.671 70.4694 950.859 74.3644 931.364 68.5375 909.781 84.128 868.725 86.1367 968.51 84.1443 993.927 144.787 989.994 205.428 956.75 193.682 935.212 283.681 911.759 371.736 980.229 199.542 968.487 289.564 954.781 379.555 0.0 0.0 911.762 68.37 0.0 0.0 923.454 54.7377 907.854 70.493 950.859 78.25 931.37 70.4568 898.073 88.0675 853.067 97.8382 968.511 84.2038 993.986 146.662 991.971 205.4 958.655 197.616 931.358 289.553 909.779 375.668 980.182 207.352 966.524 299.316 931.338 379.543 0.0 0.0 911.687 68.3529 0.0 0.0 919.564 54.7767 907.813 70.4799 948.916 78.2838 931.265 70.4802 894.156 95.8711 845.199 101.729 968.502 84.2085 993.943 144.755 991.962 199.542 958.678 195.676 935.202 287.562 911.748 371.737 980.256 201.532 972.39 291.532 960.677 381.533 0.0 0.0 911.688 66.5383 0.0 0.0 923.487 54.7416 909.803 72.3896 948.965 78.2256 931.391 68.5348 903.952 95.8302 862.791 103.676 968.47 86.081 993.976 144.811 991.987 199.595 960.577 195.636 933.292 283.707 911.689 369.814 980.251 201.515 970.436 289.614 960.642 379.578 0.0 0.0 911.751 68.4665 0.0 0.0 927.383 54.8562 909.81 72.4213 948.901 78.2832 931.288 70.4268 900.05 99.774 855.049 113.506 968.448 86.0775 995.895 146.669 997.801 199.607 960.581 197.636 935.197 287.594 911.765 371.769 982.145 205.43 972.385 293.5 958.708 381.534 0.0 0.0 911.757 68.4909 0.0 0.0 927.38 56.7096 911.664 74.3442 948.883 78.2876 931.277 70.4168 899.955 101.8 856.941 117.315 966.565 86.1007 995.889 146.664 999.764 199.546 960.643 195.704 935.242 287.569 913.655 373.699 982.185 203.451 974.341 293.465 960.66 383.493 0.0 0.0 911.747 68.5295 0.0 0.0 927.41 56.8034 905.897 74.3648 946.99 80.2323 929.338 70.5091 898.083 103.699 855.004 125.243 966.562 86.0739 995.847 144.809 993.976 199.559 960.693 195.638 935.208 283.702 913.669 371.729 989.949 199.578 974.343 289.603 960.663 381.518 0.0 0.0 909.799 68.5523 0.0 0.0 929.278 58.6902 905.885 76.2787 947.041 80.2318 931.244 70.4696 898.027 105.625 851.112 129.16 968.445 86.1226 995.917 146.662 993.945 201.496 960.683 197.594 941.103 287.638 915.615 371.766 988.049 203.502 978.227 295.419 972.388 381.521 0.0 0.0 909.789 68.5643 0.0 0.0 929.285 58.7056 905.862 74.3994 946.945 82.1741 929.294 74.3777 897.989 111.542 853.121 142.795 966.524 86.0677 995.902 146.64 993.944 199.6 962.545 197.58 937.19 285.628 913.672 371.731 989.96 201.529 976.322 291.504 962.618 381.523 0.0 0.0 909.747 68.5476 0.0 0.0 927.41 56.7883 905.845 78.2332 945.076 84.03 927.327 78.2566 896.091 115.499 853.067 146.676 964.623 86.029 995.907 144.786 993.895 199.544 962.584 199.603 939.114 289.53 911.724 371.732 990.002 205.428 976.314 293.491 958.679 381.496 0.0 0.0 907.82 68.572 0.0 0.0 929.266 56.7788 903.894 78.2923 946.877 84.0385 925.453 78.2286 896.056 117.41 858.93 146.786 964.619 86.0879 997.824 146.651 993.919 201.524 962.664 199.573 929.383 285.655 909.749 371.731 990.015 205.445 968.477 295.423 933.246 375.673 0.0 0.0 903.895 68.5584 0.0 0.0 927.341 56.7797 903.931 82.1193 946.901 82.1942 929.283 74.3361 900.028 115.369 866.702 146.721 964.579 86.1359 999.778 146.666 993.878 201.537 966.501 199.563 931.313 283.702 911.727 369.806 991.965 205.415 968.456 293.487 946.954 379.548 899.916 68.4482 903.892 70.4087 0.0 0.0 927.391 56.7896 905.866 84.0407 945.038 84.0883 925.411 80.2052 900.042 115.508 868.758 146.711 964.566 86.0883 997.845 144.755 993.955 199.54 964.573 199.564 931.334 281.742 911.72 369.812 991.941 203.491 972.37 289.594 956.731 377.623 900.096 70.3936 905.857 70.4969 0.0 0.0 929.325 58.6916 905.871 84.081 944.995 84.136 923.449 82.1175 900.036 117.366 870.627 146.802 964.556 86.1156 999.769 146.643 995.876 199.586 962.652 199.601 931.347 285.647 911.729 369.825 989.994 205.457 968.456 293.47 956.739 379.576 0.0 0.0 905.864 70.5393 0.0 0.0 929.276 58.6901</_>
      <_>909.771 66.5506 950.913 68.5296 935.209 60.6252 899.991 70.4904 868.671 72.3993 966.56 82.145 992.01 146.712 980.268 209.384 962.604 195.655 935.233 287.641 911.736 379.516 988.012 205.424 970.414 297.409 958.705 381.478 0.0 0.0 913.652 58.676 0.0 0.0 925.401 50.8033 909.775 68.4008 950.912 70.4391 935.194 64.575 898.02 70.4778 866.776 72.4055 966.569 82.2093 993.845 146.722 982.213 209.301 962.621 197.616 937.175 289.602 913.623 379.541 986.116 207.369 972.403 301.298 962.608 381.506 0.0 0.0 913.596 62.5821 0.0 0.0 917.628 50.8829 907.811 66.4904 950.876 72.3735 933.275 68.418 898.051 76.3226 866.76 78.2385 966.552 84.0461 992.037 146.684 984.127 209.265 962.664 201.541 935.217 291.534 913.658 379.581 988.048 209.299 974.351 301.324 962.618 381.534 0.0 0.0 903.902 54.8517 0.0 0.0 913.7 50.8962 909.799 68.4717 950.866 70.4822 933.285 66.519 0.0 0.0 0.0 0.0 966.522 84.0786 993.894 142.84 990.03 203.482 956.715 183.938 935.196 279.784 913.627 369.817 980.193 193.719 966.507 287.6 933.303 371.76 0.0 0.0 913.622 62.571 0.0 0.0 923.471 52.7836 909.797 68.4957 950.896 72.3742 933.268 68.4053 0.0 0.0 0.0 0.0 968.465 84.1179 993.902 144.726 991.863 203.483 954.799 189.776 931.344 281.747 907.84 371.74 978.312 195.667 962.637 289.545 931.261 373.691 0.0 0.0 911.766 62.576 0.0 0.0 923.451 52.8638 911.752 70.3711 950.915 74.3348 933.294 68.5322 0.0 0.0 0.0 0.0 968.469 84.0977 993.887 144.763 989.996 205.441 958.635 193.643 935.232 281.756 911.732 369.82 980.216 197.628 968.488 289.532 956.713 373.696 0.0 0.0 913.665 66.434 0.0 0.0 921.503 52.8542 911.671 70.4694 950.859 74.3644 931.364 68.5375 909.781 84.128 868.725 86.1367 968.51 84.1443 993.927 144.787 989.994 205.428 956.75 193.682 935.212 283.681 911.759 371.736 980.229 199.542 968.487 289.564 954.781 379.555 0.0 0.0 911.762 68.37 0.0 0.0 923.454 54.7377 907.854 70.493 950.859 78.25 931.37 70.4568 898.073 88.0675 853.067 97.8382 968.511 84.2038 993.986 146.662 991.971 205.4 958.655 197.616 931.358 289.553 909.779 375.668 980.182 207.352 966.524 299.316 931.338 379.543 0.0 0.0 911.687 68.3529 0.0 0.0 919.564 54.7767 907.813 70.4799 948.916 78.2838 931.265 70.4802 894.156 95.8711 845.199 101.729 968.502 84.2085 993.943 144.755 991.962 199.542 958.678 195.676 935.202 287.562 911.748 371.737 980.256 201.532 972.39 291.532 960.677 381.533 0.0 0.0 911.688 66.5383 0.0 0.0 923.487 54.7416 909.803 72.3896 948.965 78.2256 931.391 68.5348 903.952 95.8302 862.791 103.676 968.47 86.081 993.976 144.811 991.987 199.595 960.577 195.636 933.292 283.707 911.689 369.814 980.251 201.515 970.436 289.614 960.642 379.578 0.0 0.0 911.751 68.4665 0.0 0.0 927.383 54.8562 909.81 72.4213 948.901 78.2832 931.288 70.4268 900.05 99.774 855.049 113.506 968.448 86.0775 995.895 146.669 997.801 199.607 960.581 197.636 935.197 287.594 911.765 371.769 982.145 205.43 972.385 293.5 958.708 381.534 0.0 0.0 911.757 68.4909 0.0 0.0 927.38 56.7096 911.664 74.3442 948.883 78.2876 931.277 70.4168 899.955 101.8 856.941 117.315 966.565 86.1007 995.889 146.664 999.764 199.546 960.643 195.704 935.242 287.569 913.655 373.699 982.185 203.451 974.341 293.465 960.66 383.493 0.0 0.0 911.747 68.5295 0.0 0.0 927.41 56.8034 905.897 74.3648 946.99 80.2323 929.338 70.5091 898.083 103.699 855.004 125.243 966.562 86.0739 995.847 144.809 993.976 199.559 960.693 195.638 935.208 283.702 913.669 371.729 989.949 199.578 974.343 289.603 960.663 381.518 0.0 0.0 909.799 68.5523 0.0 0.0 929.278 58.6902 905.885 76.2787 947.041 80.2318 931.244 70.4696 898.027 105.625 851.112 129.16 968.445 86.1226 995.917 146.662 993.945 201.496 960.683 197.594 941.103 287.638 915.615 371.766 988.049 203.502 978.227 295.419 972.388 381.521 0.0 0.0 909.789 68.5643 0.0 0.0 929.285 58.7056 905.862 74.3994 946.945 82.1741 929.294 74.3777 897.989 111.542 853.121 142.795 966.524 86.0677 995.902 146.64 993.944 199.6 962.545 197.58 937.19 285.628 913.672 371.731 989.96 201.529 976.322 291.504 962.618 381.523 0.0 0.0 909.747 68.5476 0.0 0.0 927.41 56.7883 905.845 78.2332 945.076 84.03 927.327 78.2566 896.091 115.499 853.067 146.676 964.623 86.029 995.907 144.786 993.895 199.544 962.584 199.603 939.114 289.53 911.724 371.732 990.002 205.428 976.314 293.491 958.679 381.496 0.0 0.0 907.82 68.572 0.0 0.0 929.266 56.7788 903.894 78.2923 946.877 84.0385 925.453 78.2286 896.056 117.41 858.93 146.786 964.619 86.0879 997.824 146.651 993.919 201.524 962.664 199.573 929.383 285.655 909.749 371.731 990.015 205.445 968.477 295.423 933.246 375.673 0.0 0.0 903.895 68.5584 0.0 0.0 927.341 56.7797 903.931 82.1193 946.901 82.1942 929.283 74.3361 900.028 115.369 866.702 146.721 964.579 86.1359 999.778 146.666 993.878 201.537 966.501 199.563 931.313 283.702 911.727 369.806 991.965 205.415 968.456 293.487 946.954 379.548 899.916 68.4482 903.892 70.4087 0.0 0.0 927.391 56.7896 905.866 84.0407 945.038 84.0883 925.411 80.2052 900.042 115.508 868.758 146.711 964.566 86.0883 997.845 144.755 993.955 199.54 964.573 199.564 931.334 281.742 911.72 369.812 991.941 203.491 972.37 289.594 956.731 377.623 900.096 70.3936 905.857 70.4969 0.0 0.0 929.325 58.6916 905.871 84.081 944.995 84.136 923.449 82.1175 900.036 117.366 870.627 146.802 964.556 86.1156 999.769 146.643 995.876 199.586 962.652 199.601 931.347 285.647 911.729 369.825 989.994 205.457 968.456 293.47 956.739 379.576 0.0 0.0 905.864 70.5393 0.0 0.0 929.276 58.6901 905.877 84.1019 945.009 84.1342 923.486 82.1057 899.95 117.49 866.78 154.59 964.575 86.1005 1001.73 146.719 1001.76 201.525 962.639 205.436 931.328 289.57 909.749 371.759 989.942 209.304 966.521 301.299 935.253 379.557 0.0 0.0 907.805 72.3773 0.0 0.0 929.286 58.6658 907.79 86.0136 945.007 84.1797 923.483 82.1383 900.008 117.425 868.763 152.618 964.555 86.1731 1003.65 146.731 1001.72 201.545 962.608 207.342 933.24 289.573 911.699 369.827 986.096 209.324 968.481 301.274 954.763 381.537 0.0 0.0 909.74 74.39 0.0 0.0 929.301 60.6185 905.836 84.1899 944.911 86.0595 917.648 84.1452 898.02 123.245 868.648 162.302 964.551 86.165 1001.75 146.717 995.935 203.444 960.707 209.272 931.292 289.625 909.76 371.771 987.999 209.376 968.497 303.205 950.866 383.457 0.0 0.0 905.91 74.3518 0.0 0.0 929.269 60.6378 903.931 84.2154 944.912 86.0501 917.665 84.1186 899.92 123.293 868.69 162.448 964.539 86.1719 1003.66 146.743 995.913 205.44 962.555 207.353 931.304 289.539 911.725 371.765 989.958 209.324 970.459 301.263 960.627 381.546 903.903 84.1026 907.799 76.3163 0.0 0.0 927.415 60.641 905.87 84.1791 944.921 86.0258 917.665 84.0676 898.093 127.181 868.731 166.339 964.536 86.1839 1003.71 146.74 999.754 205.432 960.708 207.392 931.255 287.63 911.697 369.789 988.049 209.366 970.448 299.356 958.692 381.524 901.998 82.1253 909.765 76.2766 0.0 0.0 929.352 56.7287 903.92 84.1769 943.048 86.1001 917.573 86.0755 898.024 131.149 868.748 174.159 962.685 86.1501 1003.71 146.789 993.993 207.381 962.549 207.409 931.284 289.571 911.738 371.761 989.988 209.363 974.297 301.329 960.626 383.501 900.053 82.0972 907.829 76.2785 0.0 0.0 929.284 58.6956 900.069 84.1357 943.016 86.1227 915.688 86.0906 898.061 131.128 868.771 177.945 962.676 86.1752 1003.72 148.646 993.914 209.361 962.572 203.489 929.383 285.671 911.69 369.803 991.933 207.407 968.478 297.41 954.778 381.544 899.992 80.2043 901.972 74.35 0.0 0.0 923.469 62.602 899.993 84.1089 942.966 86.1823 915.61 88.0524 898.009 136.93 870.72 179.941 962.65 86.1556 1005.59 146.805 997.854 209.307 960.68 207.396 929.324 287.637 909.74 369.83 990.018 209.343 968.453 301.311 946.965 381.543 898.044 76.2725 900.062 74.3262 0.0 0.0 921.546 58.7026 898.051 84.1915 941.078 88.0452 915.588 88.0958 898.032 140.845 870.677 183.91 962.631 88.0254 1005.63 148.674 995.846 209.327 962.564 205.466 927.426 287.564 905.892 371.737 991.938 209.307 966.514 301.268 939.13 381.509 896.094 74.3415 899.949 78.2532 0.0 0.0 915.709 64.5811 898.039 86.0208 939.124 89.9744 913.677 93.8801 898.061 144.731 872.604 193.606 962.611 88.0506 1005.65 148.72 995.848 209.349 962.608 207.336 929.349 287.585 911.688 371.741 993.87 209.282 974.307 301.287 954.775 383.519 897.97 78.1919 898.118 80.1765 0.0 0.0 915.641 66.4925</_>
      <_>911.752 70.3711 950.915 74.3348 933.294 68.5322 0.0 0.0 0.0 0.0 968.469 84.0977 993.887 144.763 989.996 205.441 958.635 193.643 935.232 281.756 911.732 369.82 980.216 197.628 968.488 289.532 956.713 373.696 0.0 0.0 913.665 66.434 0.0 0.0 921.503 52.8542 911.671 70.4694 950.859 74.3644 931.364 68.5375 909.781 84.128 868.725 86.1367 968.51 84.1443 993.927 144.787 989.994 205.428 956.75 193.682 935.212 283.681 911.759 371.736 980.229 199.542 968.487 289.564 954.781 379.555 0.0 0.0 911.762 68.37 0.0 0.0 923.454 54.7377 907.854 70.493 950.859 78.25 931.37 70.4568 898.073 88.0675 853.067 97.8382 968.511 84.2038 993.986 146.662 991.971 205.4 958.655 197.616 931.358 289.553 909.779 375.668 980.182 207.352 966.524 299.316 931.338 379.543 0.0 0.0 911.687 68.3529 0.0 0.0 919.564 54.7767 907.813 70.4799 948.916 78.2838 931.265 70.4802 894.156 95.8711 845.199 101.729 968.502 84.2085 993.943 144.755 991.962 199.542 958.678 195.676 935.202 287.562 911.748 371.737 980.256 201.532 972.39 291.532 960.677 381.533 0.0 0.0 911.688 66.5383 0.0 0.0 923.487 54.7416 909.803 72.3896 948.965 78.2256 931.391 68.5348 903.952 95.8302 862.791 103.676 968.47 86.081 993.976 144.811 991.987 199.595 960.577 195.636 933.292 283.707 911.689 369.814 980.251 201.515 970.436 289.614 960.642 379.578 0.0 0.0 911.751 68.4665 0.0 0.0 927.383 54.8562 909.81 72.4213 948.901 78.2832 931.288 70.4268 900.05 99.774 855.049 113.506 968.448 86.0775 995.895 146.669 997.801 199.607 960.581 197.636 935.197 287.594 911.765 371.769 982.145 205.43 972.385 293.5 958.708 381.534 0.0 0.0 911.757 68.4909 0.0 0.0 927.38 56.7096 911.664 74.3442 948.883 78.2876 931.277 70.4168 899.955 101.8 856.941 117.315 966.565 86.1007 995.889 146.664 999.764 199.546 960.643 195.704 935.242 287.569 913.655 373.699 982.185 203.451 974.341 293.465 960.66 383.493 0.0 0.0 911.747 68.5295 0.0 0.0 927.41 56.8034 905.897 74.3648 946.99 80.2323 929.338 70.5091 898.083 103.699 855.004 125.243 966.562 86.0739 995.847 144.809 993.976 199.559 960.693 195.638 935.208 283.702 913.669 371.729 989.949 199.578 974.343 289.603 960.663 381.518 0.0 0.0 909.799 68.5523 0.0 0.0 929.278 58.6902 905.885 76.2787 947.041 80.2318 931.244 70.4696 898.027 105.625 851.112 129.16 968.445 86.1226 995.917 146.662 993.945 201.496 960.683 197.594 941.103 287.638 915.615 371.766 988.049 203.502 978.227 295.419 972.388 381.521 0.0 0.0 909.789 68.5643 0.0 0.0 929.285 58.7056 905.862 74.3994 946.945 82.1741 929.294 74.3777 897.989 111.542 853.121 142.795 966.524 86.0677 995.902 146.64 993.944 199.6 962.545 197.58 937.19 285.628 913.672 371.731 989.96 201.529 976.322 291.504 962.618 381.523 0.0 0.0 909.747 68.5476 0.0 0.0 927.41 56.7883 905.845 78.2332 945.076 84.03 927.327 78.2566 896.091 115.499 853.067 146.676 964.623 86.029 995.907 144.786 993.895 199.544 962.584 199.603 939.114 289.53 911.724 371.732 990.002 205.428 976.314 293.491 958.679 381.496 0.0 0.0 907.82 68.572 0.0 0.0 929.266 56.7788 903.894 78.2923 946.877 84.0385 925.453 78.2286 896.056 117.41 858.93 146.786 964.619 86.0879 997.824 146.651 993.919 201.524 962.664 199.573 929.383 285.655 909.749 371.731 990.015 205.445 968.477 295.423 933.246 375.673 0.0 0.0 903.895 68.5584 0.0 0.0 927.341 56.7797 903.931 82.1193 946.901 82.1942 929.283 74.3361 900.028 115.369 866.702 146.721 964.579 86.1359 999.778 146.666 993.878 201.537 966.501 199.563 931.313 283.702 911.727 369.806 991.965 205.415 968.456 293.487 946.954 379.548 899.916 68.4482 903.892 70.4087 0.0 0.0 927.391 56.7896 905.866 84.0407 945.038 84.0883 925.411 80.2052 900.042 115.508 868.758 146.711 964.566 86.0883 997.845 144.755 993.955 199.54 964.573 199.564 931.334 281.742 911.72 369.812 991.941 203.491 972.37 289.594 956.731 377.623 900.096 70.3936 905.857 70.4969 0.0 0.0 929.325 58.6916 905.871 84.081 944.995 84.136 923.449 82.1175 900.036 117.366 870.627 146.802 964.556 86.1156 999.769 146.643 995.876 199.586 962.652 199.601 931.347 285.647 911.729 369.825 989.994 205.457 968.456 293.47 956.739 379.576 0.0 0.0 905.864 70.5393 0.0 0.0 929.276 58.6901 905.877 84.1019 945.009 84.1342 923.486 82.1057 899.95 117.49 866.78 154.59 964.575 86.1005 1001.73 146.719 1001.76 201.525 962.639 205.436 931.328 289.57 909.749 371.759 989.942 209.304 966.521 301.299 935.253 379.557 0.0 0.0 907.805 72.3773 0.0 0.0 929.286 58.6658 907.79 86.0136 945.007 84.1797 923.483 82.1383 900.008 117.425 868.763 152.618 964.555 86.1731 1003.65 146.731 1001.72 201.545 962.608 207.342 933.24 289.573 911.699 369.827 986.096 209.324 968.481 301.274 954.763 381.537 0.0 0.0 909.74 74.39 0.0 0.0 929.301 60.6185 905.836 84.1899 944.911 86.0595 917.648 84.1452 898.02 123.245 868.648 162.302 964.551 86.165 1001.75 146.717 995.935 203.444 960.707 209.272 931.292 289.625 909.76 371.771 987.999 209.376 968.497 303.205 950.866 383.457 0.0 0.0 905.91 74.3518 0.0 0.0 929.269 60.6378 903.931 84.2154 944.912 86.0501 917.665 84.1186 899.92 123.293 868.69 162.448 964.539 86.1719 1003.66 146.743 995.913 205.44 962.555 207.353 931.304 289.539 911.725 371.765 989.958 209.324 970.459 301.263 960.627 381.546 903.903 84.1026 907.799 76.3163 0.0 0.0 927.415 60.641 905.87 84.1791 944.921 86.0258 917.665 84.0676 898.093 127.181 868.731 166.339 964.536 86.1839 1003.71 146.74 999.754 205.432 960.708 207.392 931.255 287.63 911.697 369.789 988.049 209.366 970.448 299.356 958.692 381.524 901.998 82.1253 909.765 76.2766 0.0 0.0 929.352 56.7287 903.92 84.1769 943.048 86.1001 917.573 86.0755 898.024 131.149 868.748 174.159 962.685 86.1501 1003.71 146.789 993.993 207.381 962.549 207.409 931.284 289.571 911.738 371.761 989.988 209.363 974.297 301.329 960.626 383.501 900.053 82.0972 907.829 76.2785 0.0 0.0 929.284 58.6956 900.069 84.1357 943.016 86.1227 915.688 86.0906 898.061 131.128 868.771 177.945 962.676 86.1752 1003.72 148.646 993.914 209.361 962.572 203.489 929.383 285.671 911.69 369.803 991.933 207.407 968.478 297.41 954.778 381.544 899.992 80.2043 901.972 74.35 0.0 0.0 923.469 62.602 899.993 84.1089 942.966 86.1823 915.61 88.0524 898.009 136.93 870.72 179.941 962.65 86.1556 1005.59 146.805 997.854 209.307 960.68 207.396 929.324 287.637 909.74 369.83 990.018 209.343 968.453 301.311 946.965 381.543 898.044 76.2725 900.062 74.3262 0.0 0.0 921.546 58.7026 898.051 84.1915 941.078 88.0452 915.588 88.0958 898.032 140.845 870.677 183.91 962.631 88.0254 1005.63 148.674 995.846 209.327 962.564 205.466 927.426 287.564 905.892 371.737 991.938 209.307 966.514 301.268 939.13 381.509 896.094 74.3415 899.949 78.2532 0.0 0.0 915.709 64.5811 898.039 86.0208 939.124 89.9744 913.677 93.8801 898.061 144.731 872.604 193.606 962.611 88.0506 1005.65 148.72 995.848 209.349 962.608 207.336 929.349 287.585 911.688 371.741 993.87 209.282 974.307 301.287 954.775 383.519 897.97 78.1919 898.118 80.1765 0.0 0.0 915.641 66.4925 896.092 86.0247 937.147 91.956 911.776 97.7656 897.974 148.625 870.71 197.625 962.584 88.0696 1005.64 148.706 993.854 211.235 962.662 205.461 929.347 287.609 911.71 371.751 993.915 207.413 974.355 301.309 956.724 385.41 897.909 80.1484 897.998 80.1885 0.0 0.0 913.65 68.3981 898.069 86.1693 935.259 91.9412 911.743 95.8623 898.005 148.641 876.492 195.646 962.578 88.1117 1005.6 148.661 993.931 209.3 962.632 205.413 929.41 287.651 911.751 371.767 993.912 207.372 976.287 301.318 960.635 385.441 896.063 82.1187 900.002 84.0215 0.0 0.0 917.611 68.5136 898.041 88.0772 933.324 95.8498 911.682 99.7549 897.961 152.627 874.599 205.455 962.547 88.1183 1005.62 148.712 993.954 211.292 964.579 205.462 931.276 289.563 911.759 373.715 997.849 207.358 978.244 303.23 964.578 387.385 894.138 84.0636 899.94 84.1141 0.0 0.0 915.69 68.5589 898.089 91.9464 933.32 95.874 911.675 99.7725 898.115 152.609 876.538 209.283 960.726 89.9923 1005.63 148.696 995.891 211.297 964.533 207.374 931.274 289.604 911.719 373.692 995.925 207.407 976.357 303.266 964.546 385.442 895.986 84.2105 899.968 85.9958 0.0 0.0 915.657 70.3521 898.056 95.8611 933.315 95.8908 911.678 99.7998 898.129 152.628 880.408 209.272 960.724 89.9945 1007.56 148.765 993.883 215.218 962.692 209.289 931.262 291.559 911.721 375.623 995.879 209.341 976.373 305.22 964.556 387.404 894.112 86.0791 899.925 86.101 0.0 0.0 915.629 70.4399</_>
      <_>909.81 72.4213 948.901 78.2832 931.288 70.4268 900.05 99.774 855.049 113.506 968.448 86.0775 995.895 146.669 997.801 199.607 960.581 197.636 935.197 287.594 911.765 371.769 982.145 205.43 972.385 293.5 958.708 381.534 0.0 0.0 911.757 68.4909 0.0 0.0 927.38 56.7096 911.664 74.3442 948.883 78.2876 931.277 70.4168 899.955 101.8 856.941 117.315 966.565 86.1007 995.889 146.664 999.764 199.546 960.643 195.704 935.242 287.569 913.655 373.699 982.185 203.451 974.341 293.465 960.66 383.493 0.0 0.0 911.747 68.5295 0.0 0.0 927.41 56.8034 905.897 74.3648 946.99 80.2323 929.338 70.5091 898.083 103.699 855.004 125.243 966.562 86.0739 995.847 144.809 993.976 199.559 960.693 195.638 935.208 283.702 913.669 371.729 989.949 199.578 974.343 289.603 960.663 381.518 0.0 0.0 909.799 68.5523 0.0 0.0 929.278 58.6902 905.885 76.2787 947.041 80.2318 931.244 70.4696 898.027 105.625 851.112 129.16 968.445 86.1226 995.917 146.662 993.945 201.496 960.683 197.594 941.103 287.638 915.615 371.766 988.049 203.502 978.227 295.419 972.388 381.521 0.0 0.0 909.789 68.5643 0.0 0.0 929.285 58.7056 905.862 74.3994 946.945 82.1741 929.294 74.3777 897.989 111.542 853.121 142.795 966.524 86.0677 995.902 146.64 993.944 199.6 962.545 197.58 937.19 285.628 913.672 371.731 989.96 201.529 976.322 291.504 962.618 381.523 0.0 0.0 909.747 68.5476 0.0 0.0 927.41 56.7883 905.845 78.2332 945.076 84.03 927.327 78.2566 896.091 115.499 853.067 146.676 964.623 86.029 995.907 144.786 993.895 199.544 962.584 199.603 939.114 289.53 911.724 371.732 990.002 205.428 976.314 293.491 958.679 381.496 0.0 0.0 907.82 68.572 0.0 0.0 929.266 56.7788 903.894 78.2923 946.877 84.0385 925.453 78.2286 896.056 117.41 858.93 146.786 964.619 86.0879 997.824 146.651 993.919 201.524 962.664 199.573 929.383 285.655 909.749 371.731 990.015 205.445 968.477 295.423 933.246 375.673 0.0 0.0 903.895 68.5584 0.0 0.0 927.341 56.7797 903.931 82.1193 946.901 82.1942 929.283 74.3361 900.028 115.369 866.702 146.721 964.579 86.1359 999.778 146.666 993.878 201.537 966.501 199.563 931.313 283.702 911.727 369.806 991.965 205.415 968.456 293.487 946.954 379.548 899.916 68.4482 903.892 70.4087 0.0 0.0 927.391 56.7896 905.866 84.0407 945.038 84.0883 925.411 80.2052 900.042 115.508 868.758 146.711 964.566 86.0883 997.845 144.755 993.955 199.54 964.573 199.564 931.334 281.742 911.72 369.812 991.941 203.491 972.37 289.594 956.731 377.623 900.096 70.3936 905.857 70.4969 0.0 0.0 929.325 58.6916 905.871 84.081 944.995 84.136 923.449 82.1175 900.036 117.366 870.627 146.802 964.556 86.1156 999.769 146.643 995.876 199.586 962.652 199.601 931.347 285.647 911.729 369.825 989.994 205.457 968.456 293.47 956.739 379.576 0.0 0.0 905.864 70.5393 0.0 0.0 929.276 58.6901 905.877 84.1019 945.009 84.1342 923.486 82.1057 899.95 117.49 866.78 154.59 964.575 86.1005 1001.73 146.719 1001.76 201.525 962.639 205.436 931.328 289.57 909.749 371.759 989.942 209.304 966.521 301.299 935.253 379.557 0.0 0.0 907.805 72.3773 0.0 0.0 929.286 58.6658 907.79 86.0136 945.007 84.1797 923.483 82.1383 900.008 117.425 868.763 152.618 964.555 86.1731 1003.65 146.731 1001.72 201.545 962.608 207.342 933.24 289.573 911.699 369.827 986.096 209.324 968.481 301.274 954.763 381.537 0.0 0.0 909.74 74.39 0.0 0.0 929.301 60.6185 905.836 84.1899 944.911 86.0595 917.648 84.1452 898.02 123.245 868.648 162.302 964.551 86.165 1001.75 146.717 995.935 203.444 960.707 209.272 931.292 289.625 909.76 371.771 987.999 209.376 968.497 303.205 950.866 383.457 0.0 0.0 905.91 74.3518 0.0 0.0 929.269 60.6378 903.931 84.2154 944.912 86.0501 917.665 84.1186 899.92 123.293 868.69 162.448 964.539 86.1719 1003.66 146.743 995.913 205.44 962.555 207.353 931.304 289.539 911.725 371.765 989.958 209.324 970.459 301.263 960.627 381.546 903.903 84.1026 907.799 76.3163 0.0 0.0 927.415 60.641 905.87 84.1791 944.921 86.0258 917.665 84.0676 898.093 127.181 868.731 166.339 964.536 86.1839 1003.71 146.74 999.754 205.432 960.708 207.392 931.255 287.63 911.697 369.789 988.049 209.366 970.448 299.356 958.692 381.524 901.998 82.1253 909.765 76.2766 0.0 0.0 929.352 56.7287 903.92 84.1769 943.048 86.1001 917.573 86.0755 898.024 131.149 868.748 174.159 962.685 86.1501 1003.71 146.789 993.993 207.381 962.549 207.409 931.284 289.571 911.738 371.761 989.988 209.363 974.297 301.329 960.626 383.501 900.053 82.0972 907.829 76.2785 0.0 0.0 929.284 58.6956 900.069 84.1357 943.016 86.1227 915.688 86.0906 898.061 131.128 868.771 177.945 962.676 86.1752 1003.72 148.646 993.914 209.361 962.572 203.489 929.383 285.671 911.69 369.803 991.933 207.407 968.478 297.41 954.778 381.544 899.992 80.2043 901.972 74.35 0.0 0.0 923.469 62.602 899.993 84.1089 942.966 86.1823 915.61 88.0524 898.009 136.93 870.72 179.941 962.65 86.1556 1005.59 146.805 997.854 209.307 960.68 207.396 929.324 287.637 909.74 369.83 990.018 209.343 968.453 301.311 946.965 381.543 898.044 76.2725 900.062 74.3262 0.0 0.0 921.546 58.7026 898.051 84.1915 941.078 88.0452 915.588 88.0958 898.032 140.845 870.677 183.91 962.631 88.0254 1005.63 148.674 995.846 209.327 962.564 205.466 927.426 287.564 905.892 371.737 991.938 209.307 966.514 301.268 939.13 381.509 896.094 74.3415 899.949 78.2532 0.0 0.0 915.709 64.5811 898.039 86.0208 939.124 89.9744 913.677 93.8801 898.061 144.731 872.604 193.606 962.611 88.0506 1005.65 148.72 995.848 209.349 962.608 207.336 929.349 287.585 911.688 371.741 993.87 209.282 974.307 301.287 954.775 383.519 897.97 78.1919 898.118 80.1765 0.0 0.0 915.641 66.4925 896.092 86.0247 937.147 91.956 911.776 97.7656 897.974 148.625 870.71 197.625 962.584 88.0696 1005.64 148.706 993.854 211.235 962.662 205.461 929.347 287.609 911.71 371.751 993.915 207.413 974.355 301.309 956.724 385.41 897.909 80.1484 897.998 80.1885 0.0 0.0 913.65 68.3981 898.069 86.1693 935.259 91.9412 911.743 95.8623 898.005 148.641 876.492 195.646 962.578 88.1117 1005.6 148.661 993.931 209.3 962.632 205.413 929.41 287.651 911.751 371.767 993.912 207.372 976.287 301.318 960.635 385.441 896.063 82.1187 900.002 84.0215 0.0 0.0 917.611 68.5136 898.041 88.0772 933.324 95.8498 911.682 99.7549 897.961 152.627 874.599 205.455 962.547 88.1183 1005.62 148.712 993.954 211.292 964.579 205.462 931.276 289.563 911.759 373.715 997.849 207.358 978.244 303.23 964.578 387.385 894.138 84.0636 899.94 84.1141 0.0 0.0 915.69 68.5589 898.089 91.9464 933.32 95.874 911.675 99.7725 898.115 152.609 876.538 209.283 960.726 89.9923 1005.63 148.696 995.891 211.297 964.533 207.374 931.274 289.604 911.719 373.692 995.925 207.407 976.357 303.266 964.546 385.442 895.986 84.2105 899.968 85.9958 0.0 0.0 915.657 70.3521 898.056 95.8611 933.315 95.8908 911.678 99.7998 898.129 152.628 880.408 209.272 960.724 89.9945 1007.56 148.765 993.883 215.218 962.692 209.289 931.262 291.559 911.721 375.623 995.879 209.341 976.373 305.22 964.556 387.404 894.112 86.0791 899.925 86.101 0.0 0.0 915.629 70.4399 898.085 97.7733 931.404 97.8348 907.834 101.702 898.06 156.524 882.312 209.283 960.69 89.9847 1005.66 148.697 1001.71 211.272 964.625 207.395 933.275 291.54 915.725 379.531 1003.69 207.35 980.253 305.193 966.519 395.237 896.039 86.1502 899.951 86.1506 0.0 0.0 915.628 70.4869 898.048 97.7991 931.395 99.7172 907.837 101.806 898.034 160.462 882.393 209.345 960.678 90.0339 1005.66 148.664 1001.77 209.352 964.616 207.352 933.318 291.512 915.735 379.534 1003.68 205.422 980.269 303.294 968.478 395.225 896.009 88.0363 898.117 86.154 0.0 0.0 915.598 70.4637 898.024 99.7504 931.408 99.8088 909.757 103.757 898.054 164.288 882.462 211.338 960.663 93.8874 1005.64 148.656 1005.62 209.312 966.53 205.443 933.272 289.585 915.68 379.519 1005.62 205.394 980.276 303.233 968.48 395.195 894.151 89.9921 898.071 89.9673 0.0 0.0 913.683 74.3531 897.941 99.7445 931.416 99.823 909.804 103.735 898.108 164.309 882.416 213.289 960.651 95.8248 1007.55 148.741 1007.56 211.295 966.546 207.395 931.361 289.63 915.678 379.588 1005.62 207.387 982.158 303.31 968.509 395.226 888.344 86.1761 897.973 90.0039 0.0 0.0 911.712 74.3795 894.097 95.8605 931.412 99.8035 911.664 103.732 899.942 164.287 882.437 213.264 960.622 91.984 1005.67 148.683 1007.6 209.421 970.415 209.317 933.226 291.524 915.675 381.468 1005.64 209.299 980.282 305.243 966.526 397.129 884.469 86.0039 894.152 86.1331 0.0 0.0 911.714 70.458</_>
      <_>1097.58 275.874 1148.47 301.289 1179.74 299.347 1211.1 354.163 0.0 0.0 1117.11 303.233 1091.76 371.749 1076.09 403.032 1156.29 430.494 1140.63 524.297 1158.27 632.015 1105.44 430.415 1081.91 506.684 1091.76 602.627 0.0 0.0 1099.54 271.85 0.0 0.0 1119.1 266.105 1085.85 273.959 1119.21 305.156 1101.46 303.215 0.0 0.0 0.0 0.0 1146.48 305.241 1164.11 381.493 1119.12 406.956 1087.85 432.438 1062.36 516.539 1058.48 600.612 1136.76 442.125 1134.75 534.102 1156.27 633.907 1083.95 260.282 1087.87 269.987 0.0 0.0 1115.24 262.215 1072.1 274.015 1107.42 303.29 1089.79 301.29 0.0 0.0 0.0 0.0 1128.9 305.218 1162.15 375.651 1130.86 405.026 1076.11 438.28 1042.88 530.189 1009.59 600.655 1123.06 444.126 1132.77 537.999 1154.37 631.929 1070.22 262.171 1074.15 270.011 0.0 0.0 1101.47 266.079 1058.46 281.74 1105.51 303.252 1132.85 301.302 0.0 0.0 0.0 0.0 1083.87 305.158 1068.22 381.544 1042.81 442.178 1123.04 444.14 1126.98 539.976 1154.38 630.001 1072.23 446.071 1031.11 536.067 1007.57 602.64 0.0 0.0 1062.36 271.996 0.0 0.0 1085.93 270.004 1050.65 283.729 1101.45 303.275 1128.91 303.227 1164.19 338.493 0.0 0.0 1070.18 303.221 1054.54 381.504 1038.95 432.438 1111.33 446.14 1117.2 538.103 1154.34 631.973 1058.51 448.088 1021.29 543.928 1007.57 620.237 0.0 0.0 1052.64 272.044 0.0 0.0 1072.22 270.002 1034.98 287.506 1089.79 309.156 1128.87 315.003 1136.73 387.384 0.0 0.0 1058.46 305.308 1038.86 381.544 1025.24 438.28 1101.44 457.794 1117.08 549.811 1152.38 633.907 1044.82 455.872 995.86 543.922 962.593 618.265 0.0 0.0 1035.0 273.937 0.0 0.0 1056.47 271.854 1015.42 281.765 1072.2 314.961 1111.29 318.871 1124.98 397.124 0.0 0.0 1038.95 309.152 1021.25 381.483 0.0 0.0 1085.92 455.895 1095.65 536.105 1148.5 628.008 1031.1 455.848 991.962 547.847 962.575 624.142 0.0 0.0 1021.27 273.883 1056.46 262.217 1048.67 271.872 1001.7 277.85 1048.67 315.005 1078.04 309.123 1119.2 338.532 1103.44 395.238 1017.38 318.963 1007.63 393.252 995.938 446.113 1072.1 457.819 1083.92 538.098 1146.45 626.082 1023.21 459.827 989.944 557.584 974.314 639.787 995.909 269.972 1007.55 271.87 1054.5 260.268 1027.17 268.042 993.974 285.668 1040.92 305.248 1074.1 305.166 1105.42 338.531 0.0 0.0 1009.55 307.169 991.978 383.481 0.0 0.0 1054.56 453.908 1056.54 538.039 1134.81 616.3 1003.71 455.842 976.3 555.622 960.617 639.779 0.0 0.0 993.956 273.977 1027.22 258.279 1011.51 269.956 978.3 275.872 1027.22 291.586 1052.59 279.811 1095.63 336.486 0.0 0.0 1019.35 303.294 1052.63 375.658 995.912 399.099 1027.16 461.769 1029.15 559.587 0.0 0.0 1009.55 461.75 974.327 561.53 0.0 0.0 976.408 266.099 982.189 270.025 0.0 0.0 1005.68 266.055 974.297 273.976 1021.25 291.532 1052.58 283.715 1085.92 334.512 1070.23 373.733 988.052 301.335 968.47 377.586 946.993 418.713 1025.16 453.908 995.909 551.742 984.145 624.126 976.274 450.002 948.916 547.811 941.078 616.324 0.0 0.0 976.246 269.966 0.0 0.0 991.973 260.252 956.736 273.988 1007.68 299.327 1040.86 297.412 1074.17 334.501 1054.57 381.496 976.255 301.269 956.706 369.8 944.944 403.08 1011.51 430.402 984.134 508.672 976.337 557.63 962.672 428.501 946.903 506.729 943.027 569.352 950.857 258.345 960.619 269.939 0.0 0.0 980.248 262.158 945.02 269.955 982.212 297.371 976.306 291.574 0.0 0.0 0.0 0.0 993.888 297.369 1025.2 361.955 946.984 406.969 962.624 442.186 956.733 536.083 0.0 0.0 968.504 448.048 944.992 539.983 0.0 0.0 0.0 0.0 947.004 258.252 0.0 0.0 970.442 258.199 929.304 242.679 976.298 289.541 948.891 289.516 0.0 0.0 0.0 0.0 999.761 289.588 1023.17 363.929 958.679 393.235 945.03 434.356 939.13 526.324 0.0 0.0 974.34 444.092 944.963 534.138 0.0 0.0 923.457 226.898 933.278 232.808 0.0 0.0 960.616 240.598 0.0 0.0 970.457 291.576 1007.56 297.363 1025.24 365.906 995.866 383.497 935.25 289.664 911.711 365.843 915.621 397.116 984.119 426.5 956.745 514.555 944.94 575.21 933.236 420.63 929.279 510.656 915.686 577.185 0.0 0.0 0.0 0.0 984.149 250.426 925.427 240.669 0.0 0.0 950.844 291.588 982.204 291.504 1017.39 361.971 978.244 373.719 921.515 293.508 900.1 365.89 909.74 399.125 976.311 430.47 958.688 512.617 0.0 0.0 923.485 430.443 919.571 510.667 0.0 0.0 0.0 0.0 0.0 0.0 958.714 242.626 915.729 250.398 907.852 258.277 944.964 293.465 913.722 291.574 896.045 352.142 888.297 395.179 974.354 291.535 1009.65 365.791 972.362 371.761 917.594 428.513 927.398 510.667 925.442 571.335 948.93 434.334 909.786 508.724 907.821 583.025 903.873 242.651 915.629 248.492 0.0 0.0 939.112 244.571 899.983 258.295 933.268 289.497 905.861 287.65 886.27 344.319 882.294 395.173 962.642 287.635 995.883 352.15 972.378 358.046 913.743 416.72 901.967 500.881 911.736 561.512 952.803 424.552 913.7 502.807 917.594 581.073 898.056 242.537 907.823 250.414 0.0 0.0 927.397 244.581 884.406 264.113 929.266 289.571 898.02 289.609 880.414 352.147 868.773 397.223 956.708 289.557 991.919 352.199 960.627 371.731 901.964 412.836 886.31 498.893 913.701 545.878 945.036 418.685 923.463 479.37 917.605 557.631 0.0 0.0 890.254 256.3 0.0 0.0 913.634 254.355 878.482 269.953 915.614 295.422 890.223 299.317 870.686 358.04 866.713 408.918 941.083 293.471 962.663 354.131 913.682 401.058 900.007 420.651 905.854 496.969 913.679 543.959 935.2 426.486 923.476 495.007 927.406 559.561 0.0 0.0 882.364 258.232 0.0 0.0 901.974 256.253 866.721 272.021 911.681 301.245 884.389 303.227 864.756 356.129 868.726 295.464 931.355 297.401 966.528 363.875 921.506 395.183 896.12 416.731 902.003 498.924 929.312 553.725 931.269 414.845 919.566 495.056 944.967 557.605 864.745 256.355 868.686 262.171 0.0 0.0 890.235 258.255 851.099 277.822 898.081 293.521 866.686 295.477 853.03 367.839 851.019 426.486 929.356 297.355 960.67 365.858 909.765 399.1 884.424 434.347 905.847 518.487 931.331 553.702 929.273 434.352 915.708 518.46 944.961 579.129 847.141 268.058 853.011 271.911 0.0 0.0 878.445 262.217 841.277 285.683 884.436 301.302 854.991 301.336 845.182 361.943 825.68 399.079 915.688 301.287 948.908 365.924 899.994 401.103 880.435 440.212 898.07 524.399 0.0 0.0 915.703 440.204 915.679 526.294 931.268 585.019 0.0 0.0 841.331 273.943 0.0 0.0 866.659 269.956 831.484 289.612 880.413 303.262 853.099 303.212 839.399 356.093 819.755 399.159 899.967 305.251 933.263 367.814 892.164 412.791 868.738 430.413 884.413 504.769 909.806 541.94 901.984 430.418 899.979 502.841 917.616 551.721 0.0 0.0 831.552 283.657 0.0 0.0 852.987 272.031 817.797 293.45 866.661 311.084 835.388 316.894 823.692 369.797 809.996 410.863 894.153 307.245 929.378 371.71 882.397 412.834 855.05 448.08 853.068 530.201 0.0 0.0 899.995 448.08 890.233 538.04 0.0 0.0 817.726 287.547 819.7 285.663 0.0 0.0 837.424 273.954 804.077 293.515 853.087 313.059 819.769 318.866 811.941 381.547 792.393 414.727 890.202 307.166 921.542 373.702 868.757 414.788 847.172 459.775 808.046 532.167 0.0 0.0 896.115 457.852 864.785 536.084 0.0 0.0 800.178 285.572 804.206 287.53 0.0 0.0 831.471 274.0 790.489 303.294 841.313 313.051 810.032 316.961 802.192 381.497 774.732 426.47 870.653 313.063 913.665 369.782 866.701 414.812 839.398 446.076 802.173 508.709 0.0 0.0 884.351 446.1 851.135 508.64 903.937 553.631 786.536 291.535 790.514 291.537 0.0 0.0 817.776 283.656 782.587 307.233 835.39 318.873 815.86 320.856 792.408 393.235 761.124 430.437 853.015 318.856 909.762 365.897 819.799 442.152 845.203 446.103 782.595 498.909 0.0 0.0 878.498 451.953 825.642 510.642 898.015 553.667 780.605 303.184 780.673 301.271 0.0 0.0 802.188 287.668 770.837 311.072 811.935 313.023 780.693 324.781 778.742 389.324 757.141 426.53 839.375 303.206 890.223 352.225 835.42 311.112 829.558 453.884 776.734 522.369 0.0 0.0 872.6 449.995 806.101 518.496 898.073 549.791 764.951 303.303 770.87 303.237 0.0 0.0 788.509 287.582 757.117 316.921 802.135 316.983 772.876 328.715 774.708 391.278 747.368 430.455 823.743 305.22 882.42 352.122 823.705 318.935 825.656 448.018 774.816 524.306 894.092 549.787 868.663 446.06 813.893 516.52 898.028 549.792 749.355 305.247 757.138 305.202 0.0 0.0 774.808 289.617</_>
      <_>1034.98 287.506 1089.79 309.156 1128.87 315.003 1136.73 387.384 0.0 0.0 1058.46 305.308 1038.86 381.544 1025.24 438.28 1101.44 457.794 1117.08 549.811 1152.38 633.907 1044.82 455.872 995.86 543.922 962.593 618.265 0.0 0.0 1035.0 273.937 0.0 0.0 1056.47 271.854 1015.42 281.765 1072.2 314.961 1111.29 318.871 1124.98 397.124 0.0 0.0 1038.95 309.152 1021.25 381.483 0.0 0.0 1085.92 455.895 1095.65 536.105 1148.5 628.008 1031.1 455.848 991.962 547.847 962.575 624.142 0.0 0.0 1021.27 273.883 1056.46 262.217 1048.67 271.872 1001.7 277.85 1048.67 315.005 1078.04 309.123 1119.2 338.532 1103.44 395.238 1017.38 318.963 1007.63 393.252 995.938 446.113 1072.1 457.819 1083.92 538.098 1146.45 626.082 1023.21 459.827 989.944 557.584 974.314 639.787 995.909 269.972 1007.55 271.87 1054.5 260.268 1027.17 268.042 993.974 285.668 1040.92 305.248 1074.1 305.166 1105.42 338.531 0.0 0.0 1009.55 307.169 991.978 383.481 0.0 0.0 1054.56 453.908 1056.54 538.039 1134.81 616.3 1003.71 455.842 976.3 555.622 960.617 639.779 0.0 0.0 993.956 273.977 1027.22 258.279 1011.51 269.956 978.3 275.872 1027.22 291.586 1052.59 279.811 1095.63 336.486 0.0 0.0 1019.35 303.294 1052.63 375.658 995.912 399.099 1027.16 461.769 1029.15 559.587 0.0 0.0 1009.55 461.75 974.327 561.53 0.0 0.0 976.408 266.099 982.189 270.025 0.0 0.0 1005.68 266.055 974.297 273.976 1021.25 291.532 1052.58 283.715 1085.92 334.512 1070.23 373.733 988.052 301.335 968.47 377.586 946.993 418.713 1025.16 453.908 995.909 551.742 984.145 624.126 976.274 450.002 948.916 547.811 941.078 616.324 0.0 0.0 976.246 269.966 0.0 0.0 991.973 260.252 956.736 273.988 1007.68 299.327 1040.86 297.412 1074.17 334.501 1054.57 381.496 976.255 301.269 956.706 369.8 944.944 403.08 1011.51 430.402 984.134 508.672 976.337 557.63 962.672 428.501 946.903 506.729 943.027 569.352 950.857 258.345 960.619 269.939 0.0 0.0 980.248 262.158 945.02 269.955 982.212 297.371 976.306 291.574 0.0 0.0 0.0 0.0 993.888 297.369 1025.2 361.955 946.984 406.969 962.624 442.186 956.733 536.083 0.0 0.0 968.504 448.048 944.992 539.983 0.0 0.0 0.0 0.0 947.004 258.252 0.0 0.0 970.442 258.199 929.304 242.679 976.298 289.541 948.891 289.516 0.0 0.0 0.0 0.0 999.761 289.588 1023.17 363.929 958.679 393.235 945.03 434.356 939.13 526.324 0.0 0.0 974.34 444.092 944.963 534.138 0.0 0.0 923.457 226.898 933.278 232.808 0.0 0.0 960.616 240.598 0.0 0.0 970.457 291.576 1007.56 297.363 1025.24 365.906 995.866 383.497 935.25 289.664 911.711 365.843 915.621 397.116 984.119 426.5 956.745 514.555 944.94 575.21 933.236 420.63 929.279 510.656 915.686 577.185 0.0 0.0 0.0 0.0 984.149 250.426 925.427 240.669 0.0 0.0 950.844 291.588 982.204 291.504 1017.39 361.971 978.244 373.719 921.515 293.508 900.1 365.89 909.74 399.125 976.311 430.47 958.688 512.617 0.0 0.0 923.485 430.443 919.571 510.667 0.0 0.0 0.0 0.0 0.0 0.0 958.714 242.626 915.729 250.398 907.852 258.277 944.964 293.465 913.722 291.574 896.045 352.142 888.297 395.179 974.354 291.535 1009.65 365.791 972.362 371.761 917.594 428.513 927.398 510.667 925.442 571.335 948.93 434.334 909.786 508.724 907.821 583.025 903.873 242.651 915.629 248.492 0.0 0.0 939.112 244.571 899.983 258.295 933.268 289.497 905.861 287.65 886.27 344.319 882.294 395.173 962.642 287.635 995.883 352.15 972.378 358.046 913.743 416.72 901.967 500.881 911.736 561.512 952.803 424.552 913.7 502.807 917.594 581.073 898.056 242.537 907.823 250.414 0.0 0.0 927.397 244.581 884.406 264.113 929.266 289.571 898.02 289.609 880.414 352.147 868.773 397.223 956.708 289.557 991.919 352.199 960.627 371.731 901.964 412.836 886.31 498.893 913.701 545.878 945.036 418.685 923.463 479.37 917.605 557.631 0.0 0.0 890.254 256.3 0.0 0.0 913.634 254.355 878.482 269.953 915.614 295.422 890.223 299.317 870.686 358.04 866.713 408.918 941.083 293.471 962.663 354.131 913.682 401.058 900.007 420.651 905.854 496.969 913.679 543.959 935.2 426.486 923.476 495.007 927.406 559.561 0.0 0.0 882.364 258.232 0.0 0.0 901.974 256.253 866.721 272.021 911.681 301.245 884.389 303.227 864.756 356.129 868.726 295.464 931.355 297.401 966.528 363.875 921.506 395.183 896.12 416.731 902.003 498.924 929.312 553.725 931.269 414.845 919.566 495.056 944.967 557.605 864.745 256.355 868.686 262.171 0.0 0.0 890.235 258.255 851.099 277.822 898.081 293.521 866.686 295.477 853.03 367.839 851.019 426.486 929.356 297.355 960.67 365.858 909.765 399.1 884.424 434.347 905.847 518.487 931.331 553.702 929.273 434.352 915.708 518.46 944.961 579.129 847.141 268.058 853.011 271.911 0.0 0.0 878.445 262.217 841.277 285.683 884.436 301.302 854.991 301.336 845.182 361.943 825.68 399.079 915.688 301.287 948.908 365.924 899.994 401.103 880.435 440.212 898.07 524.399 0.0 0.0 915.703 440.204 915.679 526.294 931.268 585.019 0.0 0.0 841.331 273.943 0.0 0.0 866.659 269.956 831.484 289.612 880.413 303.262 853.099 303.212 839.399 356.093 819.755 399.159 899.967 305.251 933.263 367.814 892.164 412.791 868.738 430.413 884.413 504.769 909.806 541.94 901.984 430.418 899.979 502.841 917.616 551.721 0.0 0.0 831.552 283.657 0.0 0.0 852.987 272.031 817.797 293.45 866.661 311.084 835.388 316.894 823.692 369.797 809.996 410.863 894.153 307.245 929.378 371.71 882.397 412.834 855.05 448.08 853.068 530.201 0.0 0.0 899.995 448.08 890.233 538.04 0.0 0.0 817.726 287.547 819.7 285.663 0.0 0.0 837.424 273.954 804.077 293.515 853.087 313.059 819.769 318.866 811.941 381.547 792.393 414.727 890.202 307.166 921.542 373.702 868.757 414.788 847.172 459.775 808.046 532.167 0.0 0.0 896.115 457.852 864.785 536.084 0.0 0.0 800.178 285.572 804.206 287.53 0.0 0.0 831.471 274.0 790.489 303.294 841.313 313.051 810.032 316.961 802.192 381.497 774.732 426.47 870.653 313.063 913.665 369.782 866.701 414.812 839.398 446.076 802.173 508.709 0.0 0.0 884.351 446.1 851.135 508.64 903.937 553.631 786.536 291.535 790.514 291.537 0.0 0.0 817.776 283.656 782.587 307.233 835.39 318.873 815.86 320.856 792.408 393.235 761.124 430.437 853.015 318.856 909.762 365.897 819.799 442.152 845.203 446.103 782.595 498.909 0.0 0.0 878.498 451.953 825.642 510.642 898.015 553.667 780.605 303.184 780.673 301.271 0.0 0.0 802.188 287.668 770.837 311.072 811.935 313.023 780.693 324.781 778.742 389.324 757.141 426.53 839.375 303.206 890.223 352.225 835.42 311.112 829.558 453.884 776.734 522.369 0.0 0.0 872.6 449.995 806.101 518.496 898.073 549.791 764.951 303.303 770.87 303.237 0.0 0.0 788.509 287.582 757.117 316.921 802.135 316.983 772.876 328.715 774.708 391.278 747.368 430.455 823.743 305.22 882.42 352.122 823.705 318.935 825.656 448.018 774.816 524.306 894.092 549.787 868.663 446.06 813.893 516.52 898.028 549.792 749.355 305.247 757.138 305.202 0.0 0.0 774.808 289.617 743.528 318.876 792.373 318.915 763.088 328.676 770.827 389.361 743.401 436.289 819.824 309.16 882.398 352.179 821.734 318.9 821.79 446.121 774.771 526.318 882.426 543.894 866.706 444.125 821.741 516.539 886.296 542.008 741.436 311.079 743.523 305.323 0.0 0.0 766.931 291.527 741.436 320.977 788.4 320.828 772.81 320.853 761.155 387.401 733.698 442.197 794.34 330.661 825.651 395.2 833.45 432.401 833.491 448.036 770.839 530.228 0.0 0.0 866.731 448.017 898.054 541.955 0.0 0.0 0.0 0.0 739.548 315.01 0.0 0.0 755.24 301.225 727.839 322.901 776.723 318.924 757.219 330.674 759.111 393.22 725.936 444.167 794.358 315.011 866.785 342.391 0.0 0.0 829.561 446.042 788.431 506.759 0.0 0.0 868.685 442.178 819.756 514.564 0.0 0.0 0.0 0.0 725.944 316.97 0.0 0.0 743.425 303.176 723.893 324.82 772.728 320.972 745.49 336.489 751.287 397.173 716.064 446.153 790.478 316.958 866.648 344.367 837.429 404.986 827.629 446.131 853.095 524.346 0.0 0.0 868.726 434.342 898.037 512.603 0.0 0.0 0.0 0.0 723.889 318.85 0.0 0.0 739.539 303.355 714.164 332.543 763.07 324.781 743.445 338.467 747.37 397.207 710.281 444.151 788.409 318.842 860.835 342.403 835.432 405.019 823.679 446.079 786.506 532.174 0.0 0.0 866.739 432.413 896.092 516.526 0.0 0.0 0.0 0.0 712.283 320.789 0.0 0.0 729.779 305.216</_>
